
//<![CDATA[

// a few things don't have var in front of them - they update already existing variables the game needs
lanesSide = 3;
patchesAhead = 50;
patchesBehind = 10;
trainIterations = 200000;

var num_inputs = (lanesSide * 2 + 1) * (patchesAhead + patchesBehind);
var num_actions = 5;
var temporal_window = 0;
var network_size = num_inputs * temporal_window + num_actions * temporal_window + num_inputs;

var layer_defs = [];
layer_defs.push({
    type: 'input',
    out_sx: 1,
    out_sy: 1,
    out_depth: network_size
});
layer_defs.push({
    type: 'fc',
    num_neurons: 100,
    activation: 'relu'
});
layer_defs.push({
    type: 'fc',
    num_neurons: 50,
    activation: 'relu'
});
layer_defs.push({
    type: 'fc',
    num_neurons: 16,
    activation: 'relu'
});
layer_defs.push({
    type: 'regression',
    num_neurons: num_actions
});

var tdtrainer_options = {
    learning_rate: 0.001,
    momentum: 0.0,
    batch_size: 64,
    l2_decay: 0.01
};

var opt = {};
opt.temporal_window = temporal_window;
opt.experience_size = 3000;
opt.start_learn_threshold = 300;
opt.gamma = 0.85;
opt.learning_steps_total = 10000;
opt.learning_steps_burnin = 1000;
opt.epsilon_min = 0.05;
opt.epsilon_test_time = 0.0;
opt.layer_defs = layer_defs;
opt.tdtrainer_options = tdtrainer_options;

brain = new deepqlearn.Brain(num_inputs, num_actions, opt);

learn = function (state, lastReward) {
    brain.backward(lastReward);
    var action = brain.forward(state);

    draw_net();
    draw_stats();

    return action;
}

//]]>
    
/*###########*/
if (brain) {
brain.value_net.fromJSON({"layers":[{"out_depth":420,"out_sx":1,"out_sy":1,"layer_type":"input"},{"out_depth":100,"out_sx":1,"out_sy":1,"layer_type":"fc","num_inputs":420,"l1_decay_mul":0,"l2_decay_mul":1,"filters":[{"sx":1,"sy":1,"depth":420,"w":{"0":0.014589442222940598,"1":0.05675585360040447,"2":-0.05652627100501474,"3":0.03397200682430574,"4":-0.04648816354068762,"5":-0.01717562399948088,"6":0.041169933283614187,"7":-0.036304897820890976,"8":0.012454701295074418,"9":0.042110388970332605,"10":-0.07019938812325471,"11":-0.057071212703688465,"12":-0.0007698112911445292,"13":0.0646875845907806,"14":-0.10500662458660684,"15":-0.0431308300311203,"16":-0.021804938375385434,"17":0.05071059396934975,"18":-0.12287632871886618,"19":-0.00816306537729803,"20":0.03492839002685681,"21":-0.09081978689888377,"22":0.03653291902737043,"23":-0.015471002849900068,"24":0.012280623915006466,"25":-0.08107453428760852,"26":0.03082145655755419,"27":0.03337656382269929,"28":-0.06635521344866976,"29":0.005437225573300536,"30":-0.0012248723776400086,"31":0.0605194328793302,"32":-0.029140095248166305,"33":-0.04555340085071479,"34":-0.04497709582859455,"35":-0.014131364231452196,"36":-0.055399974718983835,"37":-0.014715459589772262,"38":-0.02563951837537144,"39":-0.03776895840421889,"40":0.031995082457562364,"41":-0.0715913129186633,"42":-0.01261409851449163,"43":-0.03290352750200805,"44":0.07640539366036958,"45":-0.014247231039511083,"46":-0.02314219263612491,"47":0.00942219411046681,"48":-0.11385065351196573,"49":-0.026564279140387254,"50":-0.013270358820734442,"51":-0.020436095072984148,"52":0.08821157794403404,"53":-0.025927953667713687,"54":0.061572184712974126,"55":-0.030661602210731883,"56":-0.08985912439825819,"57":-0.0007871249215295103,"58":0.017954807090305603,"59":0.020076844302119323,"60":0.011085531808889023,"61":-0.001136504086985285,"62":0.0027200633818960703,"63":0.04210925175905266,"64":-0.0005997751553814098,"65":-0.01931226720502399,"66":0.06900382502395085,"67":0.025557247933899855,"68":-0.03801710696665512,"69":-0.02239768681858256,"70":-0.06468997575539283,"71":-0.004536258493700056,"72":0.054774809073060524,"73":0.02876019857345196,"74":-0.034326438662100195,"75":0.030267644089418556,"76":-0.039533844242011625,"77":-0.018977865386739647,"78":-0.03213095707364361,"79":0.021333024143209946,"80":0.024777392918362316,"81":0.043073025578060316,"82":0.05321524750208754,"83":-0.04182036648323725,"84":-0.05455178982748769,"85":-0.025198403233622553,"86":0.008276165323421576,"87":-0.08140695629478033,"88":-0.004984776631744672,"89":-0.02746233101089941,"90":-0.039319014600897026,"91":-0.09898101413042146,"92":-0.05327921789403956,"93":-0.026343284146843914,"94":0.04180934768018281,"95":0.029246362001461322,"96":-0.0633380483597827,"97":0.017263793821817204,"98":-0.018628589108868075,"99":-0.054265137924172216,"100":-0.0579366951517126,"101":0.060183272516773766,"102":-0.052037776855355315,"103":-0.04944340942419621,"104":0.07184797705542474,"105":-0.02624252065519234,"106":0.030390526250299508,"107":0.05516949892160907,"108":-0.05532385512714237,"109":-0.05612556669949872,"110":-0.03999459118026463,"111":0.07572696975475388,"112":0.05075951063908044,"113":-0.04209667844237924,"114":-0.035686368827151475,"115":-0.011957526569085568,"116":0.05486968403497355,"117":0.12715239204917686,"118":-0.09519282845879874,"119":0.011988503091885726,"120":-0.06870297767812054,"121":-0.028084502102796623,"122":0.0004541752134881912,"123":-0.028144484381915785,"124":-0.006020781968497012,"125":-0.013635884095778513,"126":-0.06107689697860681,"127":-0.07546161419470683,"128":0.0058265149164719475,"129":-0.016245436807238323,"130":-0.051110043373748824,"131":-0.008285194069838143,"132":0.014443113457144994,"133":-0.01094782154528649,"134":-0.004202031898865942,"135":-0.016271392557290466,"136":-0.011039678394530988,"137":-0.08668508773528293,"138":0.08516345854139985,"139":-0.057817305432956156,"140":0.06152409570282939,"141":-0.02413286547972841,"142":0.006111135313678297,"143":-0.04818753576755137,"144":-0.046833101674387215,"145":0.02168152988720757,"146":-0.01032280864170088,"147":0.011643926774065706,"148":-0.11153790621572464,"149":-0.07406889483721897,"150":0.028785375875380305,"151":-0.005934613053482156,"152":0.017037315690167806,"153":0.03959953299441298,"154":0.018479231057623946,"155":-0.001274072323340448,"156":-0.062064648553391166,"157":-0.036346948982311535,"158":0.06658241292228928,"159":0.030768609496466925,"160":-0.02067494792132244,"161":-0.006648963934767011,"162":-0.028683025761471588,"163":0.020911571359134875,"164":0.013650731821687656,"165":0.007623569458854476,"166":0.04615696743312948,"167":0.01799121385740543,"168":-0.036957461197702456,"169":0.003608652060177466,"170":0.037909660913169316,"171":-0.006566428011722821,"172":0.025540826750746797,"173":0.028816860746973497,"174":0.056990661493024945,"175":-0.029719622406074172,"176":0.05395642491691503,"177":-0.03497751688319504,"178":0.018735264680981172,"179":-0.06869916550702562,"180":0.035604245116548854,"181":0.03775552764462389,"182":-0.08850915883342651,"183":-0.017579954883977632,"184":-0.018967779417087677,"185":-0.025742054814137348,"186":0.06653256022752935,"187":-0.0017235653632044854,"188":0.06076669280286526,"189":-0.011744557134811063,"190":-0.09635913893273419,"191":0.01768584220210899,"192":-0.0841966465684869,"193":0.005834394053717704,"194":-0.04179843270451936,"195":-0.07134238821774118,"196":0.04086484552582082,"197":-0.04815592528276801,"198":0.03502450843143511,"199":-0.039804486297567554,"200":0.0016735421299134128,"201":-0.0001562459903428196,"202":0.01073216823881946,"203":0.08558983962133254,"204":-0.08946788227847292,"205":0.05719694868925137,"206":-0.06303948166597072,"207":-0.00803046174001433,"208":-0.032198002947504446,"209":0.03606260448520926,"210":-0.009345482487671223,"211":-0.001766664643763377,"212":0.06189343561763119,"213":-0.017387059139492643,"214":0.028114041791131993,"215":0.023664960585847383,"216":-0.01524785823235269,"217":0.10498621410478469,"218":-0.014517391733306533,"219":0.08359168776884253,"220":0.10736829065617594,"221":-0.049224203484799944,"222":-0.09123803794053166,"223":0.035486164857023425,"224":-0.007797716145745828,"225":-0.030866826609196995,"226":-0.029156071269231316,"227":0.06612635033943112,"228":-0.078978347931541,"229":0.011618854083207356,"230":-0.023294046766090305,"231":-0.016742575557244694,"232":-0.03553450676246217,"233":0.05502256988342149,"234":-0.06803198457486442,"235":0.03286623513599409,"236":0.023082247882557732,"237":0.05502592131473782,"238":0.0511737743602518,"239":0.013088298061808128,"240":0.0573451373350067,"241":-0.04439915695886405,"242":0.046587634608622926,"243":0.03322728272997191,"244":-0.01365455241190166,"245":0.02316003196491385,"246":-0.001639043808624218,"247":0.06188094694391832,"248":0.06841938872249408,"249":-0.02367655771680077,"250":-0.049744223095959494,"251":-0.023605534156999113,"252":-0.041413638338237635,"253":-0.0602828028666995,"254":0.00641794823208939,"255":-0.007120566234118061,"256":-0.005210615557656589,"257":0.06460212662931417,"258":-0.013063971398535656,"259":-0.010058558227408781,"260":0.0011389477717351417,"261":0.05510329235570657,"262":0.08944937659062015,"263":-0.08824668681270591,"264":0.010919496928305066,"265":-0.04532208889033841,"266":-0.00042395336383361745,"267":0.011454325960159361,"268":0.0373131284751386,"269":0.08064234350799349,"270":-0.11427457035034114,"271":0.010674536520221007,"272":-0.01147619813713243,"273":0.026257848650704917,"274":-0.0002953215115572492,"275":0.008619111509187411,"276":-0.07705500639812264,"277":0.0037523733747858103,"278":0.020018929762933523,"279":-0.10022602597949373,"280":-0.08702118471932416,"281":-0.03004563691862981,"282":0.033677468464560524,"283":0.10002904881414956,"284":-0.0009776945649734759,"285":0.03121859896087382,"286":0.002688353063474431,"287":-0.004816448016070453,"288":-0.03710919258548257,"289":0.022213684282230695,"290":0.10420500770121917,"291":-0.0014620973756360187,"292":-0.06820397362197275,"293":0.0006131109256782228,"294":0.07750663333581848,"295":0.019067239740477023,"296":0.027957434470901193,"297":0.13733164110090754,"298":-0.0382692846698453,"299":-0.023203065807054057,"300":0.04563666368222901,"301":-0.013641151232746639,"302":0.021932472263358725,"303":0.083774758270673,"304":0.045059787716516454,"305":-0.008578327684327114,"306":0.014107039346532563,"307":-0.05843159503297659,"308":0.02775800580450172,"309":0.000543039693679398,"310":0.04072331799200793,"311":0.11442194082483122,"312":-0.07221976238485431,"313":-0.0430417903940057,"314":0.009435634110699347,"315":-0.04936996062941967,"316":0.04051457607915395,"317":0.09294728836474497,"318":0.009415645730890094,"319":-0.016542208510542725,"320":-0.03148853123455288,"321":-0.014532691924851317,"322":0.03450558127646226,"323":0.0248070572664795,"324":0.06012722022365299,"325":-0.03727143785372508,"326":-0.049083311219164046,"327":-0.060295386795534534,"328":0.00781590809472707,"329":0.010532854715741951,"330":0.03169444642904721,"331":0.05207827850322008,"332":-0.03646883769622505,"333":-0.06660278251388821,"334":-0.08618085753208143,"335":-0.01632593567489279,"336":-0.022380042260984348,"337":-0.019730367720181774,"338":0.14384892401564275,"339":-0.04461477997887062,"340":-0.01647020242723587,"341":-0.0627383755214103,"342":-0.035610866123037356,"343":-0.010431005254312476,"344":0.0531529422590095,"345":0.15306513155074253,"346":-0.025797223278437507,"347":0.0021653408484389146,"348":0.005562340448163159,"349":0.07762900211718213,"350":-0.12389627157440572,"351":-0.012862115211357427,"352":0.0464220326345532,"353":-0.109235622139202,"354":-0.0608994410427229,"355":-0.007207324251397502,"356":0.014187870932611984,"357":0.049329856392830114,"358":0.05121160674972622,"359":0.11948568995829315,"360":-0.09211727787910655,"361":-0.00588980490474062,"362":-0.08412816959275946,"363":-0.04073069969409303,"364":-0.03532048927532243,"365":-0.06590989251506332,"366":0.0717874005425932,"367":-0.041965692135317416,"368":-0.10291581722131443,"369":-0.024801488867846895,"370":-0.039048342634119916,"371":-0.09831962488569478,"372":-0.03236411239135688,"373":0.027572753959021753,"374":-0.10042337762312392,"375":0.008772650285529284,"376":-0.02225777668022086,"377":0.021507029496497392,"378":-0.033972873364324474,"379":0.022636904836480874,"380":0.028323873863551417,"381":-0.03432282647213622,"382":-0.02829143682705118,"383":-0.006863917544570049,"384":-0.04884176004996703,"385":0.012863482502825702,"386":-0.02267369026931531,"387":0.027724282621040753,"388":0.10028755182037993,"389":-0.021980476143001595,"390":0.0838712036272511,"391":0.043085876730498435,"392":-0.009659594444616735,"393":0.03590707219162668,"394":-0.004337214576303605,"395":-0.0008447388560937814,"396":-0.024682836285433007,"397":-0.011646174667906998,"398":-0.05782074069539496,"399":-0.10860822403735972,"400":0.01684352930816992,"401":0.0036318996454057176,"402":0.11706663836271668,"403":-0.02905198805925745,"404":-0.013908152872638036,"405":0.05019792597856721,"406":0.0030027860819428296,"407":-0.07387617193824793,"408":-0.013609318896268496,"409":-0.02402364847583149,"410":0.046536468644964885,"411":0.013301520486882289,"412":-0.04386301613504001,"413":-0.06945956422746194,"414":0.05225178155871971,"415":-0.021900793749523702,"416":-0.12024925910475631,"417":-0.023203242909537566,"418":-0.011894679370047574,"419":-0.017888707164608813}},{"sx":1,"sy":1,"depth":420,"w":{"0":-0.002313040893785555,"1":-0.021183165123695172,"2":-0.061290472492796635,"3":0.0872126104925906,"4":0.03031031815244474,"5":0.002505404232614858,"6":0.09296083334327848,"7":-0.10465501329781153,"8":0.015036718778228741,"9":-0.04346574289781572,"10":-0.046580876645481425,"11":0.019191301136237283,"12":0.11072160023151927,"13":-0.008925840183435107,"14":0.1040602127411191,"15":-0.019765171428303606,"16":-0.08199268777363874,"17":-0.033232951561374284,"18":0.02457446172163931,"19":-0.09114878434871358,"20":0.012612694626060553,"21":-0.013332789484440397,"22":-0.026085542154388217,"23":0.03436319116581255,"24":-0.015832873297933744,"25":-0.031208451002260648,"26":0.013563943088420856,"27":-0.032315427280163705,"28":-0.12850390287679167,"29":0.07380857192665581,"30":0.018029140060720785,"31":0.024324707133262447,"32":0.01861416969775179,"33":0.056165768452294644,"34":-0.003483121038911027,"35":0.008782512341020373,"36":0.0016081370844023344,"37":0.027851242772589352,"38":0.0074904177769804054,"39":-0.03925349795853826,"40":-0.03875856312991052,"41":-0.02336879849991493,"42":-0.066909878431754,"43":0.012915777908857944,"44":-0.05333717287645455,"45":-0.045261530323168556,"46":0.11491024276125907,"47":-0.004255581626161082,"48":-0.021405513233105855,"49":-0.02221168988545127,"50":-0.01288154074415686,"51":0.06769820117179418,"52":-0.09367496034534244,"53":-0.0804416376241167,"54":-0.07272526865099567,"55":-0.03247714883102711,"56":-0.03057688430649017,"57":-0.0009058852269480264,"58":0.011464171794689539,"59":-0.029748872329289716,"60":0.04432646715675348,"61":0.0579212693825039,"62":-0.045719399417454586,"63":-0.0027899762758594017,"64":0.005469329842557413,"65":-0.030267164286182733,"66":-0.012988760582591992,"67":0.011662267178677906,"68":-0.02861159559901489,"69":-0.06695366930752933,"70":0.02880663756999607,"71":0.06789504581072263,"72":-0.002291508937529493,"73":0.025502156882289018,"74":-0.023596684161444902,"75":-0.040132694862012354,"76":-0.0025512862517067967,"77":0.07069970502327458,"78":-0.03595906335857258,"79":-0.0746760484890337,"80":-0.010248414311923764,"81":-0.007651627269995221,"82":-0.02778481729060612,"83":0.013988856817981725,"84":0.016132271009588802,"85":0.004840726064253417,"86":-0.004700992144599104,"87":0.016975496490925286,"88":0.03917123923181109,"89":-0.11551042673145152,"90":-0.08231935649756274,"91":-0.09660866916788852,"92":0.0084700213896032,"93":0.06024461773050254,"94":0.03134685154523149,"95":-0.027655247158990575,"96":-0.05059094572817246,"97":0.032889673312516195,"98":-0.0375363982619137,"99":0.008125240262278203,"100":0.06621028620789525,"101":0.048579776073686805,"102":-0.06263020514214161,"103":0.03581060240935552,"104":0.04341292086406622,"105":0.01877273133307644,"106":0.04111143252137862,"107":-0.060253818054279276,"108":0.03290794334391257,"109":0.11957489190987373,"110":0.029424782478695427,"111":0.0121433434924107,"112":0.000807902275325057,"113":0.01637341478915589,"114":-0.020368867452293864,"115":0.054702721291090876,"116":0.010174412754876247,"117":-0.053979267287151425,"118":0.010491156220263607,"119":-0.03918221681179911,"120":-0.006422525766316394,"121":0.03765528891407202,"122":-0.01892243935324789,"123":0.04773561083089709,"124":0.023406749334838713,"125":-0.11065261836656992,"126":-0.1082546682737211,"127":0.13026197132849388,"128":-0.03778144809416903,"129":-0.016023360519604554,"130":0.09002298894389477,"131":0.00042301995422472805,"132":-0.0014152302123103984,"133":-0.06476112176614458,"134":0.005752538058375987,"135":-0.08533143146814395,"136":-0.026820184236909524,"137":-0.07343208645382704,"138":0.04818231358341804,"139":-0.025222075419995986,"140":0.0010914071522984015,"141":-0.012623209780817688,"142":0.012925258618799184,"143":-0.04349193361214675,"144":0.007246334947652964,"145":-0.030975013182865004,"146":-0.0032484242962485268,"147":0.057436066316574955,"148":-0.08487537233075812,"149":-0.0730326359933096,"150":0.021351837614592552,"151":0.026318933557617084,"152":0.004286392450305557,"153":0.005033857232816538,"154":0.0043326772607276826,"155":0.018687026197996417,"156":-0.016786721034603123,"157":-0.03279154320393257,"158":0.0037712834755346605,"159":0.07629834024826677,"160":-0.07617055318709737,"161":0.03602358264139019,"162":-0.03518607757967377,"163":0.0452722332047885,"164":0.0030918111620701974,"165":-0.02525148612404559,"166":-0.02952383475002427,"167":-0.03342400086779003,"168":0.08816432381710969,"169":-0.05312625552225161,"170":-0.033302178305086506,"171":-0.029256095696037668,"172":-0.0031289604052306946,"173":-0.04127633412720267,"174":-0.03394173737528142,"175":0.07617592578129966,"176":-0.07836749666008522,"177":-0.0021359363321476286,"178":0.037508841115869766,"179":0.062260389360853645,"180":0.012251895215054716,"181":-0.02202026083673747,"182":-0.04207651314181042,"183":0.04046676846048629,"184":-0.013286365332591452,"185":0.06750627305278652,"186":-0.02205850218438132,"187":0.02021250729356455,"188":0.07368350694138094,"189":-0.007301250313471677,"190":0.04686076299452801,"191":-0.024849863809838495,"192":-0.04121720604791268,"193":-0.015468103630425039,"194":0.035949376978912075,"195":-0.05904814123518837,"196":-0.006543215549614704,"197":0.07349479678728724,"198":-0.09302527661996784,"199":0.044744454687410486,"200":-0.03650909305481848,"201":0.065965952452786,"202":0.017550864880371095,"203":-0.12501020178921773,"204":-0.06473724454154127,"205":-0.030588201955225075,"206":-0.04601546927986138,"207":-0.023712840821203444,"208":-0.03994543497823977,"209":0.06899514236140353,"210":0.0636527086842856,"211":0.07139867905970791,"212":-0.054993582430715574,"213":0.027154973425505418,"214":0.053624131376042064,"215":0.015265630431751451,"216":-0.010820788864222983,"217":0.07661612740657185,"218":-0.028364682369493514,"219":0.017394239957354552,"220":-0.007935524305300177,"221":-0.060902381169409985,"222":0.10106287552555228,"223":-0.030192341974994333,"224":-0.007459390865802723,"225":-0.02531928005748784,"226":0.001352189179207459,"227":0.033547505209118214,"228":0.026299287709507697,"229":0.030777704869153457,"230":-0.011032372727518494,"231":-0.05118471662889156,"232":0.05610437415257773,"233":-0.0010922205826099179,"234":-0.05321564582579731,"235":-0.046445402238430133,"236":0.007184199751025133,"237":-0.07790560895768969,"238":0.13240788284204177,"239":0.017006823030894156,"240":0.08513712900402792,"241":0.014389060197746118,"242":-0.12164444724888941,"243":-0.04258384845812147,"244":-0.03126325871503635,"245":-0.01121208946293091,"246":-0.10840630936385018,"247":0.039048984940780865,"248":0.011528100382112348,"249":0.04207290489355372,"250":0.04816276100021889,"251":-0.017122868445550745,"252":0.0005265002818854666,"253":-0.08168353365386367,"254":0.13956238528983628,"255":-0.00746054034215612,"256":-0.05740467027119621,"257":0.09425357276647416,"258":-0.05429844823278878,"259":0.015281924926538262,"260":0.02390909433900599,"261":0.10439018151099863,"262":0.04027198892314335,"263":0.018261515211322292,"264":0.004337683587820882,"265":-0.004608412343113973,"266":-0.13361653003725588,"267":0.017486118365303397,"268":-0.07403590320944443,"269":0.025064132365506486,"270":-0.02476670035411899,"271":0.03709856741930933,"272":0.005904007633727694,"273":-0.01202155585684472,"274":0.15526080415660043,"275":-0.0031602701961609627,"276":0.006909614292668434,"277":-0.06517126189922534,"278":-0.13336678163940105,"279":0.021952267878158533,"280":-0.07267383016079326,"281":-0.021639973170602716,"282":-0.054287684387110374,"283":0.007499235946000306,"284":0.045457733184074374,"285":-0.044035177945650955,"286":-0.04165204923790226,"287":0.12274245866899412,"288":0.017779150046015598,"289":0.029466958960391768,"290":0.023659638941939343,"291":-0.02067791316487386,"292":0.059656365607417286,"293":-0.005204939326754361,"294":0.04053620691399098,"295":0.01992727591815377,"296":0.06125053169259867,"297":-0.05002855579443404,"298":0.026960697826050907,"299":-0.1045152744662474,"300":0.041313119243603674,"301":0.017965138287318657,"302":0.019167085861707667,"303":0.01840673308455021,"304":0.0503893128371328,"305":0.0018559105827509774,"306":0.044014928981496955,"307":0.05846168268320222,"308":-0.06240386794867543,"309":-0.04773197892820524,"310":-0.021475495984235527,"311":-0.03813176999128238,"312":0.041689444374215144,"313":-0.00482317501958422,"314":0.010430491023361398,"315":-0.0037717832636099983,"316":0.010655902645488905,"317":-0.024833453583039473,"318":0.014341907465958053,"319":-0.05748295386326749,"320":0.023322494913579545,"321":-0.038760902278955435,"322":-0.03651493762785949,"323":-0.002883775674606327,"324":-0.029636164576328,"325":0.008843235066945622,"326":0.057478819217949166,"327":-0.056832311477951376,"328":-0.02599215184297107,"329":-0.021693428268090925,"330":0.0005843516050853203,"331":0.02642314420907537,"332":-0.03504316426831763,"333":-0.047040166529937165,"334":0.08207696298342229,"335":0.004468943637230832,"336":-0.04943770896184574,"337":-0.07665656978200987,"338":-0.022408138167534068,"339":-0.018302705900631825,"340":0.10207126655050859,"341":0.03668902401019609,"342":-0.009026573895192248,"343":0.07763569850922508,"344":-0.027553270401475313,"345":-0.0012125969816017038,"346":0.003424156079617567,"347":0.004343439496523826,"348":0.052467630530735054,"349":0.04449132878115539,"350":-0.016932561917492598,"351":0.01937121336666182,"352":0.03333113784097173,"353":-0.05558147560119387,"354":0.0299278079368724,"355":-0.0023211030455075037,"356":0.01217330516776561,"357":0.024717913081215764,"358":0.030940467220482812,"359":-0.03256927256500678,"360":-0.06048005511419432,"361":-0.004277341366102264,"362":-0.0999175571198511,"363":-0.04768081560254138,"364":-0.00002818719961427726,"365":-0.03428727890764087,"366":0.013092738767678047,"367":-0.06566746373241471,"368":-0.03776741837922312,"369":-0.04164650920778598,"370":0.044559039693077285,"371":-0.014901442538146232,"372":0.04782658988837595,"373":0.037924095396754245,"374":-0.04678789242876753,"375":-0.0721998086206418,"376":-0.04342589805680122,"377":0.054417812971009144,"378":-0.06499038087972321,"379":-0.03363608819434816,"380":0.04937147386395749,"381":-0.012500293850346627,"382":0.04766878511416738,"383":0.006511667384450327,"384":-0.025386989167209155,"385":0.02102735701580748,"386":0.0069739052441816825,"387":-0.021135940299220748,"388":-0.062660043557909,"389":0.0398273514180233,"390":-0.02955820141419898,"391":-0.03271779548329637,"392":-0.013069729555496134,"393":-0.11685657460433181,"394":-0.030256251155933778,"395":0.05946004912920169,"396":-0.027686009500794282,"397":0.039728788258093034,"398":0.029744376334834913,"399":0.049064050949446096,"400":0.030005676113844918,"401":-0.005300874617110234,"402":-0.03671548489160854,"403":0.02692487550941983,"404":0.03105199747264016,"405":0.024756720270230383,"406":-0.020041647988816358,"407":0.04254764984783189,"408":0.01840645178333637,"409":-0.005973347638773285,"410":-0.06127028847303082,"411":0.01613272475488241,"412":-0.00554954456893689,"413":0.028962037237614296,"414":0.06543056916807172,"415":-0.07606607089343281,"416":-0.008470716244456854,"417":0.00017724823241615817,"418":-0.0006553856489806963,"419":0.0010293740106587144}},{"sx":1,"sy":1,"depth":420,"w":{"0":-0.05606689032005277,"1":0.0621187397854245,"2":-0.005259003627673869,"3":-0.04444789770032401,"4":-0.03601361986903873,"5":-0.040378049549610655,"6":-0.004042254626534843,"7":-0.01525967113876662,"8":0.010232706219067864,"9":-0.056242131178850636,"10":0.000597230026858831,"11":-0.05023644723670627,"12":0.02448760480516648,"13":-0.06161374514472145,"14":-0.10332552373678296,"15":-0.013958006381136655,"16":0.014749564203789332,"17":0.13108933911430506,"18":-0.025389644337889004,"19":0.024342619221290336,"20":-0.0070942972178106465,"21":-0.0426984562940792,"22":0.008712768037556676,"23":-0.03055732422909877,"24":-0.07104390293444243,"25":0.008113435135078331,"26":0.01043593194795038,"27":0.04875837723767366,"28":-0.10691760578533008,"29":-0.032349861492261656,"30":-0.04162468932672537,"31":0.03376938808797286,"32":-0.023731252399906803,"33":-0.07026282982123928,"34":0.04530838157517458,"35":0.0025664912181369427,"36":-0.05656383802282023,"37":-0.014713615163283601,"38":-0.05822669063333449,"39":-0.012089219358254107,"40":-0.06305230389538916,"41":-0.06390536262914112,"42":-0.08433273296664148,"43":-0.024985578511906345,"44":-0.05274995507193029,"45":-0.04308787469924827,"46":0.029370559008642518,"47":0.05501562570020896,"48":-0.0767074721255057,"49":0.04563418624173269,"50":-0.007367657022662153,"51":-0.09150450710411495,"52":0.009895609159969461,"53":-0.033294936310647505,"54":-0.01661200518747759,"55":-0.06833443275719693,"56":-0.019103792800398825,"57":-0.05851480851062581,"58":-0.05036550064092459,"59":-0.013039374548253288,"60":-0.002556900144227627,"61":-0.02253930906650419,"62":0.01574145788422539,"63":0.02524945122281619,"64":-0.008930732311363496,"65":0.006895342271684714,"66":0.02212325603978128,"67":-0.04775650503668228,"68":-0.014769023077925792,"69":0.0038256493201473734,"70":-0.07754057916668682,"71":-0.08894404562027446,"72":0.027647965606682305,"73":-0.12743558835501786,"74":-0.006673207693415209,"75":-0.03644368145809232,"76":-0.0663352528562418,"77":0.020036946545753734,"78":0.01632487061758152,"79":-0.070226891632531,"80":0.02136896234921361,"81":0.051853869251072465,"82":-0.007818362949555114,"83":0.00619092593378737,"84":0.06160455907285174,"85":-0.07782252709317171,"86":-0.011579768510437165,"87":0.018688554466766805,"88":-0.07566332097206707,"89":-0.1158651801716154,"90":0.061207245867962556,"91":0.00780374140940861,"92":-0.02306130147578886,"93":-0.019980186462559533,"94":0.04231007374715074,"95":-0.12842993697335223,"96":0.06397809105851286,"97":0.10826938785354882,"98":0.04301715096877809,"99":0.011855013495579752,"100":0.07374353511082425,"101":0.03996509602992258,"102":-0.025979320834555335,"103":-0.03362643546351392,"104":0.03722681243161675,"105":0.020143249087536647,"106":-0.030326610975967245,"107":-0.03140198531941171,"108":0.023311130016473208,"109":-0.004709741257935508,"110":0.031058773639052895,"111":0.044976729046298125,"112":-0.08678721109493692,"113":-0.005552326711241949,"114":-0.06065312844323834,"115":0.03465233812441035,"116":-0.06710624042007027,"117":-0.0030672969873343572,"118":0.016123165980550483,"119":-0.08110644432219107,"120":0.06265210863385942,"121":-0.03107664156889876,"122":0.05643990869833569,"123":-0.034289004499975434,"124":-0.0964150954637093,"125":0.05614514105979909,"126":-0.018947138302348128,"127":0.07640633038213059,"128":-0.018711204555240748,"129":0.057527841615756546,"130":-0.056006834553261005,"131":0.011436815653287762,"132":-0.04310956236650809,"133":-0.01887564640291257,"134":-0.004738464506566572,"135":-0.017427625264995066,"136":0.06347292568579603,"137":-0.03306889455503699,"138":-0.03351546551753555,"139":0.04255524536250702,"140":-0.03138772853739099,"141":0.0067636057445981,"142":-0.04125779118400405,"143":-0.022643249878073556,"144":-0.009815771642765848,"145":0.01942972613086249,"146":-0.08500869746018583,"147":-0.01578602953853407,"148":0.00543541471983563,"149":-0.02011527400810493,"150":-0.020610076402166326,"151":-0.07605116044468423,"152":0.013546001409729056,"153":-0.050702065700207445,"154":0.01730161312439356,"155":-0.016113939546324414,"156":0.026550926455408155,"157":0.05256482162711548,"158":-0.0061454851452601884,"159":0.026503497780338742,"160":-0.08440195834340827,"161":0.010127041017351221,"162":0.003740086468827272,"163":-0.03749044338616273,"164":-0.026743007523449845,"165":-0.005037355949488621,"166":-0.08475392857434304,"167":-0.04592503580430768,"168":-0.0713014779106512,"169":-0.04243447100216962,"170":0.0789502264201635,"171":0.11457481213804963,"172":-0.06489495491873701,"173":-0.005215174283106576,"174":0.05178770818262119,"175":-0.08962372060157778,"176":-0.030660902695709796,"177":0.08251829305414148,"178":0.023636522379411447,"179":-0.05961200950463416,"180":-0.023408844726906103,"181":-0.019366468600849906,"182":-0.02390972800438092,"183":0.032610780541008945,"184":-0.07424078510801059,"185":-0.04389171793562375,"186":0.07960414975713632,"187":0.008045399847033298,"188":-0.10620158727722032,"189":0.038336086955463776,"190":-0.02471079743936275,"191":-0.01095401662827201,"192":-0.0037290597289332487,"193":0.02186475717587234,"194":-0.056321791289474954,"195":0.03181275069458775,"196":-0.06031223010699258,"197":0.025767670128548463,"198":-0.06260279047587679,"199":0.017315786406354085,"200":-0.050586346301364916,"201":-0.013290803054921209,"202":-0.02055425381376427,"203":-0.07929563953704205,"204":0.06755618272628501,"205":0.05140256537916147,"206":0.024741148837981324,"207":0.01327559239066963,"208":0.017972229199756537,"209":0.015850948327627436,"210":-0.17918492710797893,"211":-0.042554694284644964,"212":-0.05109509005662469,"213":0.028485821856985064,"214":-0.008517142259145837,"215":0.01183977167949507,"216":-0.07530270524344922,"217":0.054476294724379315,"218":-0.010672880306827953,"219":0.030834758560417192,"220":0.148111648482346,"221":0.0665189312916917,"222":-0.0507811491250062,"223":-0.030257149296737094,"224":0.08654426754285349,"225":0.003135604199846279,"226":0.023469870499980023,"227":0.17871027076889326,"228":-0.030904198136168282,"229":0.07713320720092123,"230":-0.08150310928671653,"231":0.03386056116252553,"232":-0.09015657636726968,"233":0.027403942084747526,"234":0.06432205958274707,"235":-0.01555876795577918,"236":0.04457425448816741,"237":-0.06831831047895746,"238":-0.12227558682738056,"239":-0.04337865101799408,"240":0.08464808791409895,"241":0.07488558507943095,"242":0.07192535322719508,"243":-0.014550596569462252,"244":-0.017671544458030028,"245":0.02897161665515928,"246":-0.01078269467067536,"247":-0.008169293916267579,"248":0.18549959172932626,"249":0.02732672346037736,"250":0.062454541486459084,"251":-0.007945022431578878,"252":0.003602880049915406,"253":-0.004855647764704011,"254":0.015164150673957317,"255":0.10285618086325078,"256":0.026756144554443577,"257":0.009267840526317742,"258":-0.025719126965436552,"259":0.0437544174740124,"260":0.042300468982444814,"261":0.007013684194295786,"262":0.10944970952563116,"263":0.009498082800553675,"264":-0.041545195948774746,"265":-0.11234651617826187,"266":0.01352558912988037,"267":0.009669415323922187,"268":-0.06580347124282401,"269":0.1546883420666253,"270":0.023011776217730772,"271":-0.016063599086502414,"272":-0.025762761035833148,"273":0.0035473950899570254,"274":0.008231157398827016,"275":0.021279339754270075,"276":0.14956908781484707,"277":0.014481936655086796,"278":0.009419143341693399,"279":-0.08603270072200155,"280":0.023665784038071066,"281":0.04156076718304446,"282":0.034549890685861916,"283":0.12146985688093694,"284":0.03948353352977288,"285":0.06990432542362879,"286":0.025687127831556644,"287":-0.04523089055713544,"288":-0.017132036269036404,"289":0.04863863969077304,"290":0.10893419478427308,"291":0.0016349907956267006,"292":0.04842883308404886,"293":0.008128819269615862,"294":0.03692167391479005,"295":-0.05177643696830433,"296":-0.052853103453408476,"297":0.056802497775502385,"298":-0.0055659738712353765,"299":0.020899287632253592,"300":-0.03419799015535137,"301":0.010281541746049264,"302":-0.008567231683170952,"303":-0.025719046267770124,"304":0.1605113621710939,"305":-0.02073707054315363,"306":-0.07540894311289564,"307":-0.05475249628426479,"308":0.02917234211254617,"309":-0.027850395146753828,"310":-0.12167755506285814,"311":0.07647346529530939,"312":-0.010643684282892465,"313":-0.03448350284173313,"314":-0.05015893107455351,"315":-0.04387481825595159,"316":-0.0380079305439513,"317":0.013347702169218274,"318":0.11476827231129236,"319":-0.06426559785456466,"320":-0.026671373477315855,"321":-0.07525513625074619,"322":0.06701407053295579,"323":-0.01170383788158739,"324":-0.06859019198910095,"325":0.0424706508147262,"326":0.015039794425715108,"327":-0.013882655483095283,"328":-0.010750861188350919,"329":-0.04407125881283733,"330":-0.083264539599142,"331":-0.039112364301306164,"332":0.005874742554720868,"333":-0.059544879074054924,"334":0.035600617823315236,"335":-0.014603835747457819,"336":-0.029687816291391764,"337":0.0013361603207017812,"338":-0.08180986022738813,"339":-0.029975108107775497,"340":-0.11291519180419092,"341":-0.014648548959111128,"342":0.011795942426152051,"343":-0.0076889826219702926,"344":0.03892427341860641,"345":-0.06203697218672884,"346":-0.05440161833154176,"347":-0.07443301362070182,"348":-0.12301742385807636,"349":-0.06310399506431084,"350":0.005479678190097041,"351":0.012870228006188896,"352":-0.1276136145399023,"353":0.01559814749607003,"354":-0.03198714307361025,"355":0.017128609133661286,"356":-0.09093415159219403,"357":-0.07186891622761854,"358":-0.0318248849605183,"359":-0.027887249475389272,"360":0.001239572405047724,"361":-0.09446640261164449,"362":0.014180122782208733,"363":-0.03699958868426622,"364":0.0644921302914418,"365":0.0888082919473381,"366":-0.2024534032545007,"367":-0.045643315113331945,"368":-0.0277005537843841,"369":0.01613419278128871,"370":-0.02330188578609848,"371":-0.06494106043739413,"372":-0.008702525487762664,"373":-0.13116490168125045,"374":-0.004823597958395413,"375":-0.07673195576685074,"376":-0.04560625556663605,"377":-0.045459938719643336,"378":-0.0012349478649732485,"379":-0.051707750677035896,"380":-0.013664537627758922,"381":-0.02236422562343855,"382":-0.07310713846062161,"383":-0.013601149136242108,"384":-0.06143597253128353,"385":-0.03563432682003155,"386":0.017802124576328855,"387":0.001345080514099555,"388":-0.00855033925741726,"389":-0.10675471589444865,"390":0.029113777593052115,"391":-0.01726207747797412,"392":-0.03005214086959499,"393":-0.030112206294989195,"394":-0.015068307751126532,"395":-0.08246330360387331,"396":-0.10995871235444349,"397":-0.1142272471156146,"398":-0.08844057222758592,"399":0.0207028915114894,"400":-0.07160449317798834,"401":-0.027366570501882292,"402":0.043147191023356596,"403":-0.03771425903211594,"404":0.02227319865094167,"405":0.02744830448850196,"406":0.04951557462885605,"407":-0.015196771141462825,"408":-0.06348359217809213,"409":-0.029590526716015766,"410":0.01577818233398961,"411":-0.04191082706342186,"412":-0.020137106091391726,"413":0.07819911568173743,"414":-0.01673512342421139,"415":-0.05679812362185196,"416":0.027680273642730367,"417":-0.04477195507451327,"418":-0.04054540721372504,"419":-0.01885727437293873}},{"sx":1,"sy":1,"depth":420,"w":{"0":0.09272004633119177,"1":-0.06984893149543336,"2":-0.03736606447481039,"3":-0.013061926692046925,"4":-0.025322166829154304,"5":-0.022685820799940134,"6":0.08076735821489574,"7":-0.020107079498892646,"8":-0.015094475868379004,"9":-0.009022453893099835,"10":-0.057453447928474,"11":0.05588638749109925,"12":-0.03068612548896876,"13":-0.003168596312398893,"14":0.0006405682737575126,"15":0.002531258083996198,"16":-0.033690249472587544,"17":0.057571301782500424,"18":-0.005975154022925357,"19":-0.008492096430243136,"20":-0.07031533719314503,"21":0.03193055854330527,"22":0.08535666575174816,"23":0.03560316615859854,"24":0.05776532976514052,"25":-0.018842107596032602,"26":0.014238636898362522,"27":-0.05762913164581156,"28":-0.0853531784158602,"29":0.09629576530315818,"30":-0.011169181964101545,"31":0.10256086920501453,"32":0.01981112953405798,"33":-0.08632972435664209,"34":0.0504877546220117,"35":0.022016415894936282,"36":-0.04594451404147711,"37":0.04791202083863589,"38":0.01065794451160842,"39":-0.058631424384494556,"40":0.030804702504409386,"41":-0.006798303394872467,"42":0.029605219206704687,"43":0.10156378749309182,"44":0.07353121036794459,"45":0.06950261586550197,"46":-0.04040557030917197,"47":-0.003036042512152328,"48":0.058991303572662766,"49":-0.017143184277367857,"50":0.027869221916744107,"51":0.08614578935555195,"52":0.022522599936770703,"53":0.03498924493447385,"54":0.008108487743740313,"55":-0.04013066810353197,"56":-0.041503943720165686,"57":-0.11441067959804845,"58":0.051973614680093184,"59":-0.014477443566811318,"60":0.03937956995108231,"61":-0.03410662703107246,"62":0.00668192868357579,"63":0.004747386552333574,"64":-0.015298332076927004,"65":0.07291142202691789,"66":-0.07948296347729032,"67":-0.06958654660177485,"68":-0.01681420886304429,"69":0.022477103020607684,"70":0.003746095671656463,"71":-0.003483882359592802,"72":-0.035843342698978535,"73":0.04745710963407615,"74":0.030829159866156683,"75":-0.032906483821867234,"76":-0.07162360221822248,"77":-0.011963927910518026,"78":0.01599662758801928,"79":0.011193819824718433,"80":-0.040472120735490114,"81":0.06985462432012683,"82":-0.004508336144391786,"83":-0.03101605333483997,"84":0.04559583297156746,"85":0.042729778553691575,"86":-0.041974576802428,"87":0.023484081262870226,"88":0.03954878267248631,"89":-0.011620166624075338,"90":0.07321264399847774,"91":0.09662556355421996,"92":-0.0594412469118574,"93":0.036257626189095345,"94":-0.00027703435337084604,"95":0.05540348377453869,"96":-0.04267786888490918,"97":0.016878487551739686,"98":-0.09608210479633333,"99":0.0017671170825328182,"100":0.04845781292033767,"101":0.08026567838800598,"102":-0.06551746956157771,"103":0.0583391055596346,"104":0.10464449998347909,"105":-0.03963455151999305,"106":-0.06807817838266497,"107":0.06509169236499358,"108":0.10998376740347164,"109":-0.013656455901557939,"110":-0.03414745275614432,"111":0.054155040654129585,"112":-0.03379553944956646,"113":0.007759254823571618,"114":0.020443276462360754,"115":0.1202246257536108,"116":-0.01901491084187419,"117":-0.0828820866240487,"118":0.0530061509849813,"119":-0.07788753749189717,"120":-0.037415924200661685,"121":-0.040624547682611194,"122":0.04783655459998265,"123":0.05913179405906589,"124":0.05753996019240704,"125":-0.027213823507554063,"126":-0.039643636347804115,"127":-0.09205759791883131,"128":0.029681370234328285,"129":0.03983386343622323,"130":0.09432974048645103,"131":-0.06358502175581258,"132":0.004991745686033724,"133":-0.030090141360935425,"134":0.05245307357423683,"135":0.0027162480891708978,"136":0.06650251369359189,"137":0.06307897819944001,"138":0.05175627939780779,"139":-0.023191404165669713,"140":-0.09499912927045634,"141":-0.0563518932129781,"142":0.019630243462172143,"143":-0.05425660869313893,"144":-0.06530845326918994,"145":0.017596149691052644,"146":0.008238024443121274,"147":-0.017286323383557133,"148":-0.0723419200589841,"149":0.05931521478249097,"150":0.038862645978139834,"151":-0.04241844974192659,"152":-0.04735526451703376,"153":-0.18876249956925745,"154":0.03122071367463637,"155":-0.04585054492282594,"156":0.05375422810031433,"157":-0.0765327896084967,"158":0.002800308629570894,"159":-0.002427803450670781,"160":0.01937793478064364,"161":-0.030288497190081524,"162":0.03222200925349985,"163":0.003919403232931519,"164":-0.04641661621588431,"165":-0.1281126545939688,"166":-0.02433293727854221,"167":0.040389182500102025,"168":-0.007559760576675064,"169":0.05735403993569012,"170":0.03054308318871791,"171":0.010266633378365368,"172":-0.06336267724229286,"173":-0.09882376477608243,"174":0.061240791471915,"175":-0.06364756238305369,"176":0.07745973545505537,"177":-0.05216376023276594,"178":-0.00023382425801319042,"179":0.028008290078709634,"180":-0.05729578651546557,"181":-0.024795366252680084,"182":-0.06089381524012292,"183":-0.037264765866580604,"184":-0.04593817001290758,"185":0.0771323522311419,"186":0.01234744872864849,"187":0.0765587605848185,"188":-0.008993475197423871,"189":-0.029931307680340555,"190":-0.030311709549349013,"191":0.055444157347180084,"192":0.06933698611132845,"193":0.010865231041600271,"194":0.04516343169594222,"195":-0.05920679095162908,"196":0.01736069687338686,"197":0.024373393863017404,"198":-0.007109648027664492,"199":-0.08203003524391994,"200":-0.08727650364752733,"201":-0.07048784031140685,"202":0.01666607924727504,"203":-0.09356775559839599,"204":-0.016893890949585932,"205":0.01284124732049713,"206":0.14424806129574896,"207":-0.038040579657400556,"208":0.004718321272142471,"209":0.11879089457874221,"210":0.08428510751610882,"211":0.07708712938564354,"212":-0.07611834350897793,"213":0.09203849681253735,"214":0.06066086578896147,"215":-0.04964490428557196,"216":0.10317296604647744,"217":0.032429472073943255,"218":-0.10853204504430787,"219":0.025854731408604708,"220":0.07630365516110549,"221":0.0536551909132193,"222":-0.04712836319603667,"223":0.07358178641414784,"224":0.011862368440995398,"225":-0.08542309593577127,"226":0.03274062115756818,"227":0.07367980344244525,"228":0.012788866846673694,"229":0.02532105594110372,"230":0.0795401624930871,"231":-0.015818962197340542,"232":0.0032477727653763924,"233":0.057059711855463345,"234":0.18150719772065713,"235":-0.012229908203653054,"236":-0.01329919973870346,"237":0.018108915701807334,"238":-0.028729826625053797,"239":-0.11520221875435782,"240":0.023896342482337855,"241":0.06050369435311918,"242":0.08528614222393807,"243":-0.06704461318475365,"244":0.051224569925481786,"245":-0.022279514468256215,"246":-0.0027368886873771862,"247":0.004557162219635664,"248":0.0432952517843024,"249":0.02611980411285857,"250":-0.07187197163401118,"251":0.03461634599968601,"252":-0.004314732280005863,"253":0.010884767629212276,"254":0.007388328278158296,"255":0.0927269380623351,"256":0.024779634464916364,"257":-0.09519048463096878,"258":0.05487353952995318,"259":0.02737299761856948,"260":-0.04504342910090892,"261":0.0031461605379474967,"262":-0.009889706847578538,"263":0.06321744839672455,"264":-0.03517618312728203,"265":0.01822990698909155,"266":-0.05843517593741678,"267":-0.0003418822381358873,"268":-0.0367175133740932,"269":0.049238979649923756,"270":0.008678800378183416,"271":0.06084998764511917,"272":0.12681092077306388,"273":0.04518809606713996,"274":0.003907268804265439,"275":0.04223762859116029,"276":0.021193730973927287,"277":-0.051020317447937086,"278":0.02253797549905977,"279":0.014283977004987037,"280":-0.043344811517135234,"281":0.04584562039263899,"282":0.06267952664611541,"283":0.14674932125988657,"284":-0.010617574853396022,"285":-0.02982787561436827,"286":-0.07387865917414325,"287":0.0194443693563247,"288":0.015608909928406562,"289":0.016328152005009675,"290":0.09212669470611862,"291":-0.05266127056494239,"292":-0.05785866789233183,"293":0.10124552987653078,"294":-0.030650151715548968,"295":0.03496281690808555,"296":0.16912436502542316,"297":0.022902360150983004,"298":0.01754209304631206,"299":-0.06032235725714831,"300":-0.041283346316789135,"301":0.02854193353381434,"302":0.014792532062236128,"303":-0.03491735159144748,"304":0.1904471407727741,"305":-0.01576295831610983,"306":0.05563846290937207,"307":0.05354239923542593,"308":-0.028411085581950324,"309":0.03033675018278793,"310":-0.027192902041659837,"311":0.10708406436134675,"312":-0.10290760893302023,"313":0.030402875744071807,"314":0.0034371379502179853,"315":0.025992316764990586,"316":-0.006283349278609674,"317":0.032807342343780486,"318":0.10442469469198079,"319":-0.021875231720781322,"320":-0.03256384642892963,"321":0.02272749505239586,"322":-0.05221717953325629,"323":-0.05256125328005674,"324":-0.10565894196657362,"325":0.1637992794621613,"326":-0.10037724108706744,"327":0.06977142913669826,"328":-0.010894102429346844,"329":0.01914723558384109,"330":-0.0937303688999892,"331":-0.05737216524353057,"332":-0.019291131185136562,"333":-0.04488297349428153,"334":0.038787595293062097,"335":-0.030469945062797616,"336":0.0862816934625963,"337":-0.014140191013212745,"338":-0.04115482284610008,"339":0.03685585562093415,"340":-0.1262567283317071,"341":-0.018281912560099735,"342":0.051933706780772755,"343":0.0018087567666102116,"344":0.04523205605154626,"345":-0.10237003580984497,"346":-0.033125333816404784,"347":-0.13571032661240715,"348":-0.05369631920093344,"349":0.03214679909949483,"350":0.12065552516701485,"351":-0.06192493113707796,"352":-0.11329699368299949,"353":0.002943972571464725,"354":-0.07642716154324149,"355":0.05181985040568238,"356":0.0040388185727955215,"357":-0.01812471066972345,"358":0.003145640484920584,"359":-0.15280393970619185,"360":-0.009961712497295513,"361":-0.2076611317415026,"362":0.04183291180309278,"363":-0.04315140152754124,"364":-0.08074437527770321,"365":0.04590208277126728,"366":-0.0007926850575700272,"367":-0.05869136260258792,"368":-0.2013336321787821,"369":0.06039894152760686,"370":0.06205449672616181,"371":-0.03585435476653968,"372":-0.03723125276774479,"373":-0.04360077068750271,"374":-0.05909488862793147,"375":-0.11317332144845643,"376":-0.0556251985472929,"377":0.01837648832561496,"378":-0.03565370730384199,"379":-0.02138910157308653,"380":-0.06989129013047944,"381":0.005545415023137154,"382":-0.2073042678009947,"383":-0.043701398318211654,"384":0.04018738498402943,"385":-0.054272921948797626,"386":0.011604239896468482,"387":-0.06706158481518493,"388":0.06491325674263261,"389":-0.024732123829374876,"390":0.010832577423261618,"391":0.03309909953200678,"392":0.0435929030007235,"393":0.08017372694690951,"394":0.06888040530621353,"395":0.042125682076625356,"396":0.031227987548852542,"397":0.05926303170623238,"398":0.06889759246938656,"399":-0.08810108858867485,"400":-0.03648281755674084,"401":-0.016860220797720062,"402":0.08675745237269682,"403":0.049782143880492076,"404":0.08751199126923175,"405":-0.04466487988226836,"406":-0.08661330421867457,"407":0.0010094451075224795,"408":-0.08497076394073054,"409":0.04637750381942732,"410":0.004368175590553168,"411":0.07825767047893788,"412":-0.00023825935824719186,"413":-0.04116964465927966,"414":-0.028209049912357658,"415":-0.029636224214720126,"416":0.10092245301832775,"417":-0.045838715952739875,"418":-0.014464741105146787,"419":0.016119746704225064}},{"sx":1,"sy":1,"depth":420,"w":{"0":0.01204984260229989,"1":0.008485979878433567,"2":-0.0637587461254518,"3":-0.023440821337723423,"4":-0.049269490801592736,"5":0.07057274538134575,"6":-0.06940357325409698,"7":0.041050288950925794,"8":0.005226993465467859,"9":-0.03205455953234213,"10":-0.011414102039917341,"11":0.023546570421693985,"12":0.04832037561902108,"13":-0.045008474549791094,"14":-0.022090487522810433,"15":0.005344473252917225,"16":-0.011348123002014364,"17":-0.01662756827022664,"18":-0.04755016364640331,"19":0.08970409974769859,"20":-0.01468284528998653,"21":-0.06762101486642626,"22":0.014105246299292957,"23":-0.04933756722001812,"24":-0.03202885381147114,"25":-0.0994310954606866,"26":0.05469874804758222,"27":-0.0186132241474881,"28":0.004900966804416592,"29":-0.0007863475736427027,"30":-0.09347053402227588,"31":0.044269108459921075,"32":0.04613049871833674,"33":-0.022969525527879373,"34":-0.046410711887107436,"35":0.05557260530005101,"36":-0.03908227452655612,"37":-0.028803628237474538,"38":-0.011172773625253542,"39":-0.009581710739479662,"40":-0.02447883039446437,"41":-0.025406534296851357,"42":-0.04245264111101364,"43":0.11103499773115419,"44":0.053494836722188,"45":-0.03513468811886582,"46":0.026767856590567473,"47":-0.02442376935692352,"48":-0.03154721428357239,"49":0.02182566206093388,"50":-0.0770532691463793,"51":-0.015438043619796026,"52":-0.058864215893552334,"53":-0.04930708538565714,"54":-0.026138318963306133,"55":-0.040774536940859835,"56":0.028426376544395917,"57":-0.044656325697532674,"58":-0.118358956406966,"59":0.03006938389473742,"60":-0.0027852955764348353,"61":-0.031513915641025604,"62":0.02102821373117582,"63":0.01721744605017293,"64":-0.03106711217956749,"65":0.027642029698109607,"66":0.024895214801460775,"67":0.009318242416044616,"68":-0.008732155835997376,"69":-0.03083598501591707,"70":0.03161700069677566,"71":0.046064739474401234,"72":0.005254282586228074,"73":-0.048620175017171405,"74":0.022605022406014575,"75":-0.004895253039710439,"76":-0.02020473491533188,"77":-0.015369021328947116,"78":-0.0346418250279343,"79":-0.026902949305336182,"80":0.010473067715094821,"81":-0.014099744235668048,"82":-0.042972162628995156,"83":-0.056786802032694456,"84":-0.06440645030406524,"85":-0.07688754444124939,"86":0.003851022279576093,"87":-0.022391781011075026,"88":0.018970529121978854,"89":0.018078465529152616,"90":0.05120276451639577,"91":-0.02449180710078015,"92":0.01120950484388244,"93":-0.0022501322291347873,"94":-0.042654017088030606,"95":0.023794806025363373,"96":0.03677657426523566,"97":-0.04960856612937003,"98":-0.0087586239443226,"99":0.017492675425170884,"100":0.02065928819055832,"101":0.006071624533729151,"102":0.00854690073737505,"103":0.024415291894956923,"104":0.025451211213667866,"105":-0.05207180160519264,"106":-0.07440235471768297,"107":-0.00028771288151884905,"108":-0.08452353018263917,"109":-0.04262067727018701,"110":0.010436990514478777,"111":-0.05455901910758125,"112":-0.020892957863691178,"113":0.0954858595142538,"114":0.0574393361464668,"115":-0.08660194471564565,"116":0.0374442411260255,"117":-0.01627256818999333,"118":0.04425917413999351,"119":-0.07322231106986836,"120":-0.02219633290413543,"121":0.11078556096016536,"122":-0.06752282030028492,"123":-0.024707062841278365,"124":0.02986790801977297,"125":-0.04418493684491581,"126":0.0453591855697211,"127":0.06936978320187967,"128":0.033861418321336136,"129":0.0017957591788838603,"130":0.03150561347412208,"131":-0.027910052740443298,"132":-0.007719799218438683,"133":-0.03172560963787634,"134":-0.03887201821384405,"135":-0.09733665288400453,"136":0.1048543651031255,"137":-0.05315033882901999,"138":0.05369604645801304,"139":0.043664015551668496,"140":0.029285900421633412,"141":-0.01417322234792979,"142":0.07421316901879162,"143":-0.02410240026725221,"144":-0.12244135747815706,"145":-0.052245850568366725,"146":-0.028690064102557405,"147":-0.032798406095587804,"148":-0.03535769455602353,"149":0.07796389501429186,"150":0.0527492430331227,"151":0.04281711038325492,"152":-0.020237551514890467,"153":0.028410084148043534,"154":0.03909019717862778,"155":-0.008393190213629918,"156":0.004295085625902797,"157":-0.02924637243856226,"158":0.06701624614099311,"159":-0.039569351302741855,"160":0.051019535080391525,"161":-0.010185512484375384,"162":-0.08668547420680082,"163":-0.0030043849116653887,"164":0.05103399683806175,"165":-0.0027200433647518504,"166":-0.12140623305945798,"167":-0.04015394607273439,"168":0.00565004054959765,"169":0.05956552223504339,"170":-0.016323528542449776,"171":-0.04890055334771547,"172":0.01612179342196564,"173":-0.019113898290349783,"174":-0.06865246610512739,"175":0.06504595930932204,"176":-0.052340514880348715,"177":0.03620544260727875,"178":0.027237923659046356,"179":-0.018561833795863122,"180":-0.05034312987676533,"181":0.03886552030957868,"182":0.060107476636747474,"183":-0.02701791527965691,"184":-0.0496327987554789,"185":-0.0477659946699334,"186":0.02785473026587441,"187":0.016435652409537056,"188":0.020531019279602034,"189":-0.02563293066810976,"190":-0.008864550205706314,"191":-0.024398925829488095,"192":0.04133172539638265,"193":-0.003505242709866798,"194":0.07145048862303187,"195":-0.08637993400200081,"196":-0.04302891653195069,"197":-0.06803831891636355,"198":-0.023326601238548773,"199":-0.004174327927553562,"200":-0.004324362621432629,"201":0.04375015446598603,"202":-0.022815811744414567,"203":0.003953652487846247,"204":-0.04838591775787826,"205":0.09258364959079135,"206":-0.037974510190459616,"207":-0.01298284542989902,"208":-0.02048557791324077,"209":-0.11563982967866947,"210":0.009811523313755113,"211":0.003900051133487485,"212":-0.0213209253945248,"213":0.005474237570964945,"214":-0.007030512473335075,"215":0.05755422025405389,"216":0.08614822756753676,"217":-0.07555646778324224,"218":-0.04414833850859734,"219":0.043833029213012124,"220":0.05124817617808177,"221":0.07658379377323905,"222":0.12838797013042114,"223":0.09045246922136878,"224":0.1440597380539723,"225":0.04371015784229755,"226":-0.035181115459021466,"227":0.04521603343529081,"228":0.06475506549790443,"229":-0.012721531951127915,"230":-0.016091742205615798,"231":0.06218383485129955,"232":0.06297410187608968,"233":0.023299492517838357,"234":-0.0032911497654004957,"235":-0.0342845594266854,"236":0.0344768575374253,"237":-0.04240399887489276,"238":-0.022107075806269114,"239":0.02889409566519756,"240":-0.08818016568022997,"241":-0.0018509930503006874,"242":-0.04009488070303576,"243":-0.04028859679310782,"244":-0.01305500508610429,"245":0.025493704729881626,"246":-0.02750244586876087,"247":-0.029721253928063626,"248":0.0490118055524659,"249":0.005201037613728849,"250":-0.000992587947944554,"251":0.019665330026651592,"252":-0.02226165897933301,"253":0.017443646410269607,"254":-0.03229930109218104,"255":-0.007756262451236161,"256":0.055956145907595525,"257":0.006620710921915653,"258":0.006051432778388395,"259":-0.031391658875804605,"260":-0.04705045741532826,"261":-0.031396011785059005,"262":0.03150070186605508,"263":0.10127410151862706,"264":-0.06069054179126707,"265":0.010567237186497389,"266":0.040201560225405004,"267":-0.020281824902474693,"268":0.05874072659263794,"269":-0.08551227186326098,"270":0.05813659206033183,"271":-0.011715905065795498,"272":-0.043533105537717845,"273":0.021275974710427095,"274":-0.03090266255419045,"275":0.11201414180937311,"276":0.031820087048312046,"277":0.022901657438101464,"278":-0.023286357326867377,"279":0.06387971399732792,"280":-0.08939842717581528,"281":0.07073099452142394,"282":0.054212919852263855,"283":0.046286559439859154,"284":-0.029636135065111122,"285":-0.030447304618931383,"286":0.034636712957120855,"287":-0.026306685472961746,"288":-0.033329465477915335,"289":0.06563538185992923,"290":0.07983874925814825,"291":-0.06805667317653291,"292":-0.043680739095582906,"293":-0.00032857338046704353,"294":-0.014647136250421283,"295":-0.01837876478373118,"296":0.01950869868195044,"297":-0.0035545798688651226,"298":0.06244285479528597,"299":0.0195010875365677,"300":0.07453264020211514,"301":-0.047478680552680196,"302":-0.007944105506030986,"303":0.020888782346417556,"304":0.06185855015420917,"305":0.04466607380408041,"306":-0.014812035399177238,"307":0.014931775436150225,"308":0.0003474630397270704,"309":-0.01372087577232285,"310":0.021101740383126257,"311":-0.08581879536146139,"312":0.015091737410758591,"313":-0.06449522727636864,"314":-0.011659978474912729,"315":0.023863374099361286,"316":-0.06690611106437497,"317":-0.05674595030727294,"318":-0.0862459601632389,"319":0.07395079457432455,"320":-0.01860496373556989,"321":-0.07300361905785417,"322":0.036838166362177044,"323":-0.06629557633540288,"324":-0.03457468201631859,"325":-0.023874667817691073,"326":0.042291778246250515,"327":0.003923293675898614,"328":-0.00048778134603778714,"329":-0.08670421579419285,"330":-0.03078845697682919,"331":-0.02469496531857959,"332":0.030621315203347373,"333":-0.0229862369821552,"334":-0.00033492975021529877,"335":-0.0447577325732901,"336":-0.008825404512326357,"337":0.021786460299322543,"338":0.09721262525098971,"339":0.014064796504736755,"340":-0.09114319262779326,"341":0.012806310712530609,"342":-0.0761870697937421,"343":0.05062214783350965,"344":-0.00704643578565859,"345":-0.053530657000112974,"346":0.031307509561048025,"347":0.032284647429158576,"348":0.0026285757728118355,"349":-0.09677048521077554,"350":0.008488072709051227,"351":0.09923239761113005,"352":0.06734901279083266,"353":-0.10085813382779701,"354":-0.010341337197202791,"355":-0.10793073269439528,"356":0.005169774461713846,"357":0.031312735086161,"358":0.053837070281866815,"359":0.026242417928423505,"360":-0.0706426436660973,"361":-0.021385898596682572,"362":-0.08669690418134036,"363":0.0019196449699049754,"364":-0.03434384032008648,"365":-0.056387464826601584,"366":0.011632760734987767,"367":-0.08440995940154424,"368":0.009768833668630253,"369":-0.10143975571590526,"370":0.008292653287912337,"371":-0.03522506534061549,"372":-0.03512380404945107,"373":0.03660852747258784,"374":-0.07677474453028992,"375":0.03735660116064396,"376":-0.14073555044931094,"377":-0.10871775807857288,"378":-0.0217551957772264,"379":-0.029557997962427262,"380":0.03403482669284509,"381":-0.015840583561232358,"382":-0.03504735499958813,"383":0.17251558293503996,"384":-0.04106532111768998,"385":-0.02146565873948475,"386":0.058522708737641586,"387":-0.0927952508083885,"388":-0.04691122136587103,"389":-0.0002743297581278092,"390":-0.05132520672234559,"391":-0.04767068663154918,"392":-0.0021384782568117664,"393":0.08536296228831652,"394":0.04877602155488447,"395":0.06395992209885663,"396":0.07697539851824074,"397":0.0385872411878513,"398":0.003685991858220655,"399":0.037834542886430435,"400":-0.04113264569182163,"401":-0.011331060646709704,"402":-0.017553308033645288,"403":0.08274194810304293,"404":0.02107440294044676,"405":-0.04709484565112954,"406":0.01599701104195951,"407":0.033361555813261355,"408":0.06744045669905947,"409":-0.06251826079311434,"410":0.02605874044291836,"411":-0.04552390455652366,"412":-0.05481325949943109,"413":-0.02327970985991749,"414":-0.04802678396969427,"415":0.008721920893015647,"416":-0.016394754868344234,"417":-0.03683335955264378,"418":0.10153194827622908,"419":-0.0018385583184376102}},{"sx":1,"sy":1,"depth":420,"w":{"0":-0.007582272617592146,"1":-0.022279329308571832,"2":-0.10419134030863621,"3":-0.016753267654445663,"4":-0.04375356863464042,"5":-0.02262371778083051,"6":-0.03175008259684388,"7":-0.028925327271478243,"8":-0.015378201527180791,"9":0.007018788865311461,"10":0.05464322367370751,"11":-0.011664949989722789,"12":0.0028436134956447263,"13":-0.0002327563250856917,"14":0.08193856828136364,"15":-0.041540934018026665,"16":0.06062360968084102,"17":-0.07749510533890186,"18":0.016449839884158837,"19":0.0950080784460868,"20":-0.027162060690249828,"21":-0.0342128237053338,"22":-0.12873032330455908,"23":0.06609600292049489,"24":0.02315057813665386,"25":-0.018759533151749438,"26":-0.08246883372930656,"27":0.0056433860847219155,"28":-0.025660745130531005,"29":-0.010467509057557478,"30":0.034521989929082716,"31":-0.06841927567447284,"32":-0.015057995173482866,"33":-0.01778258615243397,"34":-0.04886329666627534,"35":-0.02076868511253713,"36":-0.03841737004153791,"37":0.01150321608821658,"38":-0.011577708379405818,"39":-0.014622921702190319,"40":-0.04711167722350049,"41":-0.04240120524643565,"42":-0.03177561072099554,"43":-0.028215090907151828,"44":-0.01409578059075812,"45":-0.001153905010360782,"46":0.03300257359206837,"47":0.06640888692997658,"48":0.07215313372426464,"49":0.05835368585606946,"50":-0.0037966662083620895,"51":-0.021073261928980715,"52":0.0973555042821517,"53":0.02487107154642828,"54":0.021102497171675835,"55":0.028863402673284227,"56":0.08292517895182291,"57":-0.0058618026221789864,"58":-0.019130484251141274,"59":-0.08042640034161064,"60":0.03313145178143265,"61":-0.05392839748972438,"62":0.06564095796749865,"63":-0.05784499126328381,"64":-0.03247124531819306,"65":0.05906998002174401,"66":0.047945782657360485,"67":0.06253067209797436,"68":-0.004141515499401392,"69":-0.0039586054965437475,"70":-0.001605108113965906,"71":-0.015849973580057623,"72":0.004115511933043738,"73":0.04484177586477603,"74":-0.08482797569172305,"75":-0.004774673369304766,"76":0.02215362210693742,"77":0.03371372140148748,"78":0.006696234443782896,"79":-0.031868376540549685,"80":-0.005832093426824179,"81":0.012205408756132964,"82":0.025988193472747303,"83":0.023739970774594343,"84":-0.0212405951355814,"85":0.00019737164529210968,"86":-0.0623300104518112,"87":-0.04978060629604417,"88":0.07236911771212225,"89":-0.0011144703740850654,"90":-0.01584124133674733,"91":0.13590172924286995,"92":0.0336214559169347,"93":0.010993672337676105,"94":0.042872533474543985,"95":0.09136279908310872,"96":-0.07217366399025284,"97":0.022052965540497328,"98":0.0029622524323883437,"99":0.08030851849959184,"100":-0.0039047783921893424,"101":-0.07202187876965278,"102":0.020605401238565645,"103":0.041172407358557005,"104":-0.03722586739225684,"105":0.09104754360496575,"106":-0.07151612246486574,"107":-0.035499227574138766,"108":0.027605211071000293,"109":0.033302097618388586,"110":0.11150352142253603,"111":-0.03856806681984371,"112":0.08971270595798439,"113":-0.11717566644017509,"114":-0.08811055146995973,"115":0.016781753187397778,"116":0.009639840509255593,"117":-0.034415512327346236,"118":-0.056679808796706456,"119":0.04984930370277932,"120":0.037044702056545205,"121":0.04026582209284575,"122":-0.009292517201581696,"123":0.013953920262038727,"124":-0.09311615311984782,"125":0.08158728331211322,"126":0.036970799690669194,"127":-0.03826116386042004,"128":-0.03066504964457353,"129":-0.03346101643359431,"130":0.03168988468933052,"131":0.07315614728621228,"132":-0.007037806686941934,"133":0.03279999476924735,"134":0.03883174222603608,"135":-0.17597516851531889,"136":-0.019788771007124315,"137":0.0728260693352908,"138":-0.023606975428530293,"139":-0.034677249630255876,"140":0.021730733114963752,"141":0.02701020281488552,"142":-0.0824257182109772,"143":-0.03028429851882745,"144":-0.04629179135051261,"145":0.046127484451327846,"146":-0.031181134587153873,"147":0.09000574932314684,"148":-0.0011500466096674986,"149":-0.07432418208913381,"150":0.026905547153817305,"151":0.041208916081979755,"152":0.12465577569660946,"153":-0.008527215905504789,"154":-0.022617774023981855,"155":-0.07832563612841235,"156":0.0021817645968037177,"157":0.029519146612585208,"158":0.09195569693219029,"159":0.0280920781368029,"160":-0.08531950943836561,"161":-0.04906143721416492,"162":0.013548816756719578,"163":0.02343087302790072,"164":0.002605814483261033,"165":-0.03686966156312113,"166":-0.061562779773647734,"167":-0.033609110593498366,"168":0.04257990041327743,"169":-0.04082468587146768,"170":-0.023264738621817597,"171":0.024072035146237732,"172":-0.05811725352033678,"173":0.015224476036585381,"174":0.036527005793269084,"175":-0.020440887395245928,"176":-0.07047376412355812,"177":0.017434207578319195,"178":0.05357769759545342,"179":-0.042184721856305174,"180":-0.019924481726581667,"181":0.0006015339460500921,"182":0.051924073476915675,"183":-0.09134153778022958,"184":-0.06947415902619096,"185":0.048155425078925396,"186":-0.06202118398767637,"187":-0.06013936488943859,"188":-0.08705812563984276,"189":0.06052786912042912,"190":-0.026444871770815163,"191":-0.036079346616485555,"192":0.04993950344169511,"193":0.09231038790162492,"194":0.022106790452766954,"195":-0.019637920051688896,"196":0.03360698815100949,"197":-0.06329875644286083,"198":0.01736505220114319,"199":0.01838566670507355,"200":0.006235907082347364,"201":0.04060567011491347,"202":0.028715754337453978,"203":-0.035009588626916055,"204":-0.009896398997535477,"205":0.028601578510860072,"206":-0.005281499676174702,"207":0.03682630789798047,"208":0.06507839435635358,"209":-0.0012243576156253835,"210":-0.058535541405342964,"211":-0.09340477231277698,"212":-0.050406704935730046,"213":0.07538536537262933,"214":0.02572298744038563,"215":0.07828790892749755,"216":0.03736505823301897,"217":-0.026075076460220236,"218":-0.050242194472291536,"219":0.019035020541015267,"220":-0.01440855919442902,"221":0.03412982729786949,"222":0.01776193483347218,"223":-0.0004536654800656063,"224":-0.06786736526009964,"225":-0.10919458676666423,"226":0.028008025896774893,"227":0.040507141929549385,"228":0.05457484939424193,"229":-0.028390650326303474,"230":-0.02426696117946647,"231":-0.055737426883901035,"232":-0.0591860256980094,"233":0.04769764101664157,"234":0.029135661448174602,"235":-0.02756409469511891,"236":0.07264359777384559,"237":0.047522635167939656,"238":-0.07730357609720283,"239":0.02044063813524872,"240":-0.03816620071967661,"241":-0.026361348562146905,"242":0.04615192915231331,"243":-0.024361636762757693,"244":-0.017755447206774265,"245":0.0928348891674091,"246":0.011051595666294262,"247":-0.035680331993666804,"248":0.015296303690103142,"249":0.020610084390893717,"250":-0.026578319154545862,"251":0.040764867893787304,"252":0.10068809172241681,"253":0.041148038156101144,"254":0.054197219794191356,"255":0.0647278826009588,"256":0.011199441371288131,"257":0.050308047051299126,"258":0.029930819720016308,"259":-0.05514882416604042,"260":0.150211455193939,"261":0.04095248007732723,"262":0.04147135608552671,"263":0.07911555363282602,"264":0.03131014875532466,"265":-0.027549905892022046,"266":-0.05956759062597462,"267":-0.05866184740780258,"268":0.048405551633082154,"269":-0.004508773383604234,"270":0.03572441924228576,"271":-0.06642204062711969,"272":0.06380221587158244,"273":0.008718494766349684,"274":0.003780578438660244,"275":0.06885058807533474,"276":0.053546154190061,"277":-0.01316264529651895,"278":-0.023947556223267323,"279":-0.035389838934449074,"280":-0.06707429628297837,"281":-0.006589495095084665,"282":-0.040507221955546416,"283":0.18548717076178783,"284":0.030573013021002654,"285":-0.10440893209852468,"286":0.017629318519568896,"287":0.1237593349079253,"288":0.04138005265884786,"289":-0.004645183343818079,"290":0.018099159087133505,"291":0.024485525031465588,"292":-0.04360402417959452,"293":-0.018360884108596365,"294":-0.1253285046862898,"295":0.03386626891098466,"296":0.00009976481498341238,"297":0.08895014773578422,"298":-0.0017026253438195689,"299":-0.09447070038301528,"300":0.1258298352882469,"301":0.01525931170256967,"302":0.03663482479864664,"303":0.019761666069939104,"304":0.1495770357598133,"305":-0.004772699441168736,"306":-0.039576377827198334,"307":-0.030008439928323756,"308":0.06157909125504731,"309":-0.0452169852237993,"310":0.08479485299977053,"311":0.08190182357609062,"312":-0.040400644074558206,"313":0.05451089233515918,"314":-0.0007698102255458179,"315":0.005872616832579193,"316":0.00810576023305338,"317":0.0445099402312116,"318":0.2025338587125904,"319":-0.04166494217639169,"320":0.004465969589858544,"321":-0.011784014573781715,"322":0.0780050973707086,"323":0.06898700539777647,"324":0.09184306378045486,"325":0.11373489879148778,"326":0.06152080035252225,"327":-0.01638098422445534,"328":-0.04945527105022343,"329":0.01724485012670671,"330":0.04566780111845513,"331":0.09415096797329969,"332":-0.04297121569998986,"333":-0.0101485417739816,"334":-0.062428931902713494,"335":-0.023093381177419044,"336":0.008293503239721401,"337":0.006650669446948922,"338":0.06629822556531703,"339":0.015733218336211375,"340":-0.03217720171888977,"341":-0.07235872732777647,"342":0.057070651187749726,"343":-0.04582148775092574,"344":0.004036900418746261,"345":0.0988114178230221,"346":0.056057222755813284,"347":-0.0025010781411333675,"348":-0.1041234012870876,"349":-0.05571090717943045,"350":-0.026319635532141738,"351":0.01775761111993587,"352":0.1360147864368856,"353":-0.1673381802638641,"354":-0.03132583992282801,"355":0.03407848603171469,"356":0.016077107284552757,"357":0.05921178695130024,"358":-0.02121262249701684,"359":0.15228168257516408,"360":-0.09588859849863746,"361":-0.0401479415938915,"362":-0.057740744851124966,"363":-0.005663799794207475,"364":0.03939749347926245,"365":-0.025453283995894645,"366":0.1470470795685359,"367":-0.07518908904997312,"368":0.027535595673611385,"369":0.025356344032864353,"370":0.033423766972976665,"371":-0.0026752870000950617,"372":-0.03264236264958526,"373":0.1618070016085428,"374":-0.1403721273149649,"375":-0.03858535470155907,"376":0.018363345835598198,"377":0.06477472883006753,"378":-0.03966207514975952,"379":-0.005575635873505884,"380":0.0837625665358645,"381":0.027149367269048756,"382":-0.11329338828432942,"383":-0.0255844320284328,"384":0.03585239813202538,"385":-0.011359032161772298,"386":0.039594273415714684,"387":0.047846996086578095,"388":0.0320786176068005,"389":-0.016513895519199663,"390":-0.028483480738359417,"391":-0.06038546941007405,"392":-0.03323517833706189,"393":-0.012566701807473853,"394":0.0076772635049209195,"395":0.00043099961206339053,"396":-0.027824592767761388,"397":0.0202789809417803,"398":0.04120777319505224,"399":-0.0015129669863690215,"400":0.03429871854093176,"401":0.01655949702180538,"402":0.04576717301546579,"403":-0.011513047169957956,"404":0.02120967021422437,"405":-0.04302096493013726,"406":-0.03244822810512252,"407":-0.061262542997560995,"408":0.0374499354718998,"409":0.0020731957831053418,"410":-0.02192857674379516,"411":0.08401463454673859,"412":-0.001982878438757275,"413":-0.06666776411354615,"414":0.0484392654705973,"415":-0.008735790047833631,"416":0.05374049105899241,"417":0.025726086161358283,"418":0.04672267230632998,"419":-0.032046221322308305}},{"sx":1,"sy":1,"depth":420,"w":{"0":0.028567928577522345,"1":0.008375620171004164,"2":-0.048699884301798155,"3":0.11716381604558396,"4":-0.0009305411262483284,"5":-0.02847916780766977,"6":0.1025552465138488,"7":-0.10666645248087508,"8":0.016731646207031627,"9":-0.041610568588705335,"10":0.10258418652471325,"11":0.017189669375314905,"12":0.07634495495460987,"13":0.030642079839446515,"14":-0.11885490455402394,"15":0.09007295878457933,"16":0.017509959395994538,"17":0.08196359930483606,"18":0.014943065719939783,"19":0.0062189158965791705,"20":0.022373735354119885,"21":-0.041127128669214,"22":0.03252670770428613,"23":0.0859847461114831,"24":0.04125702718217654,"25":-0.09090078365395762,"26":-0.020851214970780997,"27":0.0748201552778159,"28":0.004306864704054233,"29":0.011674802597501963,"30":-0.06901409065551367,"31":0.08964866657616881,"32":-0.04097172856881595,"33":-0.10282790164641453,"34":-0.01721572098053616,"35":-0.06143872775999101,"36":-0.027458696312422835,"37":0.01762680685138643,"38":0.05270826906601771,"39":-0.015797953284197915,"40":0.00046943520515400406,"41":-0.01492120292547503,"42":-0.02854246324958121,"43":-0.033707343116189656,"44":0.043830573225277454,"45":0.021975398353069504,"46":-0.03203654031487255,"47":0.0015212924301443611,"48":0.06255566749077873,"49":0.004538462031846712,"50":0.0063472357279122284,"51":-0.00032838747642990917,"52":0.06209465482042993,"53":0.01181626217466536,"54":0.07787607298695963,"55":-0.07093744699044013,"56":0.005605438868382087,"57":-0.03532793639281559,"58":0.044191556380580796,"59":0.06230212425183384,"60":0.018338475214279375,"61":-0.0070046893246243505,"62":-0.01842556324656163,"63":-0.04189845842841662,"64":0.09384689442007539,"65":0.057140646611436446,"66":0.05683763378198274,"67":0.002881055172781073,"68":-0.028036242052124776,"69":-0.0118109558298283,"70":-0.004410164464114406,"71":0.11710232006630629,"72":0.010019232403827568,"73":0.0499325501046956,"74":0.06256478158328527,"75":0.00687701079920948,"76":0.045809113242393736,"77":-0.04500378630122139,"78":0.13881965442256686,"79":0.07207452989911385,"80":0.08395058008256107,"81":0.03679386304516363,"82":0.02495651767857552,"83":-0.09817436363892154,"84":-0.007482970141938496,"85":-0.017277264921331477,"86":-0.0457547647399208,"87":0.12003831853962121,"88":0.011712194420498763,"89":-0.0028917552793089295,"90":0.02060235419999038,"91":0.08151144847925043,"92":0.05522750285504736,"93":0.05667090420275539,"94":0.03098020986193647,"95":-0.002285801965113361,"96":0.02656256504959228,"97":-0.13904282486267955,"98":0.008481691379216633,"99":0.00008977729224760631,"100":0.05512179813892971,"101":0.004279561011381127,"102":-0.0128619089969676,"103":0.08056803318903205,"104":-0.009362349883773937,"105":0.06877270706311744,"106":0.01567609084889119,"107":0.044004504384844975,"108":0.11933643795738312,"109":-0.05203316511669753,"110":-0.034937525219173635,"111":0.01633940956279174,"112":0.024666598359050967,"113":0.007123572283389193,"114":0.05251882605025783,"115":-0.0316169454578031,"116":0.12863516094017788,"117":-0.01859082004020734,"118":-0.13679865774298275,"119":0.03692910348962891,"120":0.026095455152051108,"121":0.06941898709827676,"122":0.13919621893917675,"123":-0.022715885663026975,"124":-0.13056744197084724,"125":0.0371711601129833,"126":-0.03264071793145873,"127":0.02198195027471255,"128":-0.011332564734307573,"129":0.008168498881039663,"130":0.0475588788404493,"131":0.07252603659985282,"132":-0.06006220321376081,"133":0.04943012752017816,"134":0.030241870418746767,"135":-0.0171779718205406,"136":0.045499866630856145,"137":-0.03239597785734098,"138":-0.024761588658959565,"139":0.035506390006818475,"140":0.04439944919293642,"141":0.008814217209118869,"142":-0.018123234732953745,"143":0.05767029623294164,"144":-0.04502842153463424,"145":0.06685950068310044,"146":-0.02000657464538442,"147":0.05634384687780646,"148":-0.05751174775839746,"149":0.0895256246936581,"150":0.01722202761222397,"151":0.12070609085900712,"152":-0.040817593635581996,"153":0.04531182155704728,"154":-0.07878563379680172,"155":-0.004832062608479115,"156":-0.024927472614515944,"157":0.01685065014244813,"158":-0.09907359819695723,"159":-0.010734361835481987,"160":0.07557241572538201,"161":-0.04941207533984601,"162":-0.007534202845197226,"163":0.015370480939548578,"164":0.07822822248681215,"165":-0.04660608855587484,"166":0.011713070092692335,"167":0.031169854948044997,"168":-0.10571441989547078,"169":-0.014639209716628162,"170":-0.01595323636283823,"171":0.1441546992587234,"172":-0.08720022771585749,"173":0.026329318683947837,"174":0.02963224958270174,"175":0.05696392957064685,"176":-0.015963306867446583,"177":0.12780507681570732,"178":0.007381843889092162,"179":0.01932345613849386,"180":0.03261091989742736,"181":-0.05659873378068908,"182":-0.03344829266147975,"183":0.035091731160047754,"184":0.027609601900593427,"185":0.11619613711142862,"186":0.007551878939537584,"187":-0.04802094495496436,"188":-0.00991741021699038,"189":-0.0444057179600941,"190":-0.022213671894629562,"191":0.013569565106177272,"192":0.0284503093859689,"193":0.005142804766282998,"194":0.057871982321450195,"195":0.0013807224162460828,"196":-0.05671633368854126,"197":0.018880449504375455,"198":-0.0034076008656468816,"199":-0.07100183215880954,"200":-0.08164793444211951,"201":-0.03243822497408429,"202":-0.023310236235050942,"203":-0.08766016994566495,"204":0.00481644063094929,"205":-0.09514545899995357,"206":-0.03942716981381779,"207":-0.06393621568313095,"208":0.04137237101179609,"209":-0.006431496300578513,"210":0.01649916884857851,"211":0.02472043463472185,"212":0.00034117902473885104,"213":0.017237492050290588,"214":0.050681543244736164,"215":0.03647982566322338,"216":0.09267910057167039,"217":-0.03850467256025506,"218":-0.030604504524043803,"219":-0.09356009413095055,"220":0.09847078136221692,"221":-0.033725950744473106,"222":-0.009689994853448809,"223":0.009518105821981763,"224":-0.09097425991458631,"225":-0.08773442898858744,"226":-0.05755120212456471,"227":-0.008011542421251612,"228":-0.07149769314281383,"229":-0.021127765752891922,"230":0.020582077667414742,"231":-0.052059276260515215,"232":-0.05985073608089727,"233":0.06097096444735703,"234":0.01834188052750643,"235":-0.18529643718853256,"236":-0.005122661056891339,"237":-0.002498982886258834,"238":-0.08499366684198525,"239":-0.13800834871520548,"240":-0.010139567961483928,"241":-0.012480720749605791,"242":-0.09913728749925625,"243":-0.09815252202384163,"244":-0.06315398681343054,"245":0.018280938854773252,"246":-0.09519163527341998,"247":-0.022271002909831833,"248":0.0037606028054615356,"249":0.005024195888566267,"250":-0.058705684034964054,"251":-0.09263414161117485,"252":-0.04879256930015971,"253":-0.048429547810547424,"254":-0.140084164999982,"255":-0.1101130389334476,"256":-0.01576319582006896,"257":0.014372872582674199,"258":0.08448190473164613,"259":-0.0000786746057675725,"260":-0.014248581621707257,"261":0.05457523346359037,"262":-0.14014302256143793,"263":-0.05760022686743996,"264":0.0014161222709407242,"265":0.002945232798572933,"266":-0.04097120045302115,"267":-0.12219769257085802,"268":-0.10764601998027722,"269":-0.0683698068961793,"270":-0.02972320495273701,"271":-0.016192666487692,"272":0.0057768574508021905,"273":0.0007390754917164543,"274":0.031661566228509956,"275":-0.061021839316353924,"276":-0.11282050477041938,"277":-0.06642224570055368,"278":-0.05516938246690782,"279":0.03350019046083662,"280":-0.022384972145871693,"281":-0.11123200722547406,"282":-0.0001168599494653215,"283":0.015704574750088296,"284":-0.05638247214108507,"285":0.010943814463395325,"286":-0.08098372525770449,"287":0.12616690575295175,"288":0.007231503356513403,"289":-0.07341289672328283,"290":0.04828418214211978,"291":-0.04717354855419554,"292":-0.024351219248064892,"293":-0.03917387743526896,"294":-0.006827202843547254,"295":0.04379661173793795,"296":0.03241157677899851,"297":-0.013632107983659185,"298":-0.059143320246477046,"299":-0.01640744011335912,"300":-0.017960128860325362,"301":0.09218179904747727,"302":-0.0067033479176459064,"303":0.08856967087360826,"304":0.1441897434840876,"305":-0.0499051422260742,"306":-0.055187304179755745,"307":0.055545779210436234,"308":-0.013200936291016872,"309":0.007690610748633194,"310":0.001395709596763801,"311":0.0625338367599288,"312":-0.10622324990053617,"313":0.03220128149399816,"314":-0.05743604843539612,"315":0.04568283762341112,"316":-0.00415808937303162,"317":0.017757454658106814,"318":0.02747886741615646,"319":0.023388136578433357,"320":-0.028162288596614342,"321":-0.01790370952555752,"322":-0.009292449222143676,"323":0.007248437463190372,"324":0.06475920152514522,"325":0.09360111213984625,"326":-0.043805128398986,"327":-0.007590550017342113,"328":-0.01015386915812951,"329":0.05071380074712374,"330":-0.03377174873811357,"331":0.06739350903617736,"332":0.10680786458599811,"333":-0.03802451824490137,"334":-0.048336390792219054,"335":0.05742732048735541,"336":-0.02159839628199499,"337":-0.13352265194608828,"338":0.11975750632603849,"339":0.11761844603863869,"340":-0.06165591526918856,"341":-0.0325961166266435,"342":0.012743247763296276,"343":-0.03393497472921091,"344":0.024918902266202973,"345":0.08950240266323575,"346":0.11148077771856502,"347":-0.06740626584226747,"348":-0.003288098905314033,"349":-0.11810147652505541,"350":-0.024225609438160753,"351":0.03977911885060254,"352":-0.08293379314724589,"353":-0.11293207682310684,"354":-0.0008971719074492796,"355":0.02290336676233173,"356":-0.06965606360816781,"357":0.05126657160963133,"358":-0.007773694766070565,"359":0.013852071989142333,"360":-0.2089700721577211,"361":0.006236510478985797,"362":-0.032944445713391064,"363":-0.04593829018147394,"364":0.07984796895822495,"365":0.046438577850850045,"366":-0.004906946728720243,"367":-0.06829274249573737,"368":-0.05422244845021167,"369":-0.060435417891951344,"370":0.0817336166878852,"371":-0.006759156363273651,"372":0.002318478090777879,"373":-0.060486939136477784,"374":-0.03955864492516549,"375":-0.029942198459446807,"376":-0.022132581407154524,"377":-0.009114735756324783,"378":0.0032857594737317856,"379":-0.020064437586059584,"380":-0.10943998754584705,"381":0.11089547755755816,"382":-0.06874675335659076,"383":-0.0059070565562608,"384":0.029131907028653644,"385":-0.03556790152592852,"386":-0.08558091889371813,"387":-0.07507658438750936,"388":0.06489545795784801,"389":0.11024209518516102,"390":-0.05625712031347716,"391":-0.04651346251259457,"392":-0.043874913497271344,"393":-0.045809047375984006,"394":-0.04947974289685214,"395":0.1179178532002855,"396":-0.055083039575137015,"397":-0.006025806907827695,"398":0.03787748654136916,"399":0.020145000662531724,"400":-0.058871103839323466,"401":-0.05264707924632577,"402":-0.024515015989754856,"403":-0.020614690832904597,"404":0.010902622440130039,"405":-0.04800652078009849,"406":-0.09505960511783086,"407":0.007450224523810603,"408":0.05206188503783444,"409":-0.03153424722063345,"410":-0.030464307874131173,"411":-0.0069157895771632125,"412":0.04806045107219477,"413":0.054488356588001774,"414":-0.0003210517186414082,"415":0.0181276345576752,"416":-0.07660465814449052,"417":-0.10304841949244979,"418":0.09613983808521188,"419":0.00008600494605778697}},{"sx":1,"sy":1,"depth":420,"w":{"0":-0.008092413651272177,"1":-0.02703744475884025,"2":0.011096095327665745,"3":-0.03566900557831742,"4":-0.007657978834228364,"5":0.025801537639856667,"6":-0.06970244309239128,"7":0.13309846313679863,"8":0.029311566611029998,"9":-0.01757134304916438,"10":0.048199064788490974,"11":0.038540111644737154,"12":-0.009692525475426655,"13":0.04674399979020357,"14":0.023331694962519526,"15":-0.04570060248482067,"16":0.04716529768404929,"17":0.03494761109755928,"18":-0.017711234644817716,"19":-0.06139853176631723,"20":-0.0027373415057749617,"21":0.048207673160446655,"22":0.012089004938118715,"23":0.07210382039419926,"24":0.03302407484166541,"25":-0.14205123620472232,"26":0.08738287647361823,"27":0.04180525304004263,"28":0.03339599638831847,"29":0.00610432272850315,"30":0.039359157949568215,"31":0.06196651420432731,"32":-0.028984624146295757,"33":-0.043116305338676136,"34":-0.03893985232872716,"35":0.03157286156874738,"36":-0.01271460191074129,"37":-0.008245616233106037,"38":0.0677473557872155,"39":0.033129931809853665,"40":-0.11251907961732738,"41":-0.05014788657424408,"42":0.06292069302069785,"43":0.0667476144780823,"44":-0.05116522968384813,"45":0.01443077927143633,"46":-0.05574505546729821,"47":-0.01152622706380254,"48":-0.051508429907669996,"49":0.05977420064180731,"50":-0.002037215291835686,"51":-0.038732365571501705,"52":0.02780633109912914,"53":0.027599224228038868,"54":-0.023192348436364578,"55":-0.053124638567142786,"56":-0.004455167636303072,"57":0.004957060853093462,"58":-0.0691811590153247,"59":0.029387872856416343,"60":-0.024593872925911895,"61":-0.01842739971542646,"62":-0.04887359980902498,"63":0.03808595675793379,"64":-0.04466982409995681,"65":-0.021659784398997583,"66":0.010206270540561778,"67":0.0032454910054781345,"68":-0.002172518628564371,"69":-0.06578339207810842,"70":0.01004872749763136,"71":-0.10142786676995237,"72":-0.06399386935745174,"73":0.005687498359901528,"74":-0.07552381824766027,"75":-0.0021709465262456673,"76":0.029604142776468837,"77":0.009852983611501604,"78":-0.0855119293600285,"79":-0.006788209768931364,"80":0.02558275335425214,"81":0.012134528897119972,"82":0.013354272261076255,"83":-0.0361334422679692,"84":0.02733653191872093,"85":-0.08631635793643073,"86":-0.05184759341352443,"87":-0.003772330672675063,"88":0.05094835679523563,"89":-0.0007269824501075321,"90":-0.03627687922948501,"91":0.00685819352452921,"92":-0.03391419673956444,"93":-0.05165041116718934,"94":0.0032618441084266005,"95":0.021946510929066777,"96":0.013160984050109214,"97":-0.06384798807129771,"98":-0.027720514675207912,"99":0.05691379153620576,"100":0.0160687342648148,"101":-0.02612003885003677,"102":0.06495530746663976,"103":-0.0587746267477816,"104":0.024734687889019436,"105":0.0791501689148187,"106":0.0127179761346048,"107":-0.013921628322908363,"108":0.05402461541880605,"109":-0.07056354244058989,"110":0.032618617217823186,"111":0.02316395686657843,"112":0.06688965089650205,"113":-0.09761431789767845,"114":-0.01755770351746429,"115":-0.00428704812520204,"116":0.01277469718430568,"117":-0.01189783116608657,"118":-0.007726175491183357,"119":0.0470630312233924,"120":-0.0007299999294442108,"121":0.009893136099159759,"122":-0.02744124176298968,"123":-0.04163239769461418,"124":-0.09395903129131582,"125":-0.11340630706105091,"126":-0.02599375375719143,"127":0.015455317312012249,"128":0.07184644566609943,"129":-0.026552167459282322,"130":-0.022664172632747764,"131":-0.050106185771794244,"132":0.002548271901375365,"133":-0.05600879489464281,"134":-0.0609562655588949,"135":0.08413803502025105,"136":-0.14841057659452175,"137":0.06173541624197404,"138":0.017943061101451156,"139":0.004430983954453226,"140":-0.05970950137858142,"141":0.04210963834612152,"142":0.013124275010582522,"143":0.06889294477977809,"144":0.026573290012092705,"145":-0.06953788129399571,"146":-0.04780000979922645,"147":-0.011959194880228435,"148":-0.050418605549275804,"149":-0.14491764724774595,"150":-0.07905351267929253,"151":0.01202017567549032,"152":-0.02924444646666338,"153":-0.0688233592087247,"154":-0.08302962252029378,"155":-0.0494980907655279,"156":-0.00023235605045171257,"157":0.0872271972561955,"158":0.06015162666851338,"159":-0.02415543764725009,"160":-0.008744775837447781,"161":-0.06857732688863653,"162":0.0628556993656235,"163":-0.0657443637888152,"164":-0.06067211843955251,"165":0.01665338672299523,"166":0.011325280119729707,"167":0.09925015908887183,"168":-0.0955508576002805,"169":0.033736696553091104,"170":0.10655954170557431,"171":-0.07886574315881462,"172":-0.06449296837864643,"173":-0.039099247524701945,"174":-0.036561871300350775,"175":0.009943924041046855,"176":0.04555048137630142,"177":-0.06797938282005722,"178":0.05763617270609333,"179":0.04634478137557347,"180":-0.047917345952727425,"181":0.030998877542267822,"182":-0.011355160808113792,"183":-0.10670500463109446,"184":0.02257367996628631,"185":0.042982126731971416,"186":-0.14242693750750368,"187":-0.013381786108667007,"188":0.00009777598408675702,"189":-0.1104361265482309,"190":0.015810562618719246,"191":-0.030984544346751044,"192":-0.04264946720245437,"193":0.0335016075116165,"194":-0.007321509900929397,"195":-0.042865872421347,"196":0.028875271111733616,"197":-0.004724859653389414,"198":-0.020036335919217666,"199":0.01758297065874597,"200":0.05479486680171803,"201":0.015177034828089514,"202":0.056225997313919286,"203":0.0633466299633676,"204":0.005814811817368447,"205":-0.0025884041087457163,"206":0.05199151366948306,"207":-0.08946213000022536,"208":-0.041424711483051734,"209":-0.08002598167837215,"210":0.0026729367964376106,"211":-0.05572679044825534,"212":0.011735914295949631,"213":-0.01915308502821791,"214":-0.04204603838711965,"215":-0.004262073289783957,"216":-0.03834903565501329,"217":0.0893422567504981,"218":0.03664134272154477,"219":0.08678645205350626,"220":0.07435948437183257,"221":0.023457330993017212,"222":0.004845654425553228,"223":-0.014940452573125762,"224":0.05087629836418537,"225":-0.021905543941926484,"226":-0.007263298825562028,"227":0.01664501994564681,"228":-0.03594872272483622,"229":0.018506508151378283,"230":0.008243322075048232,"231":-0.01604906224079023,"232":-0.08020216440040714,"233":-0.009535783035364736,"234":0.04540951517175466,"235":-0.07281844606708478,"236":-0.00857616274250166,"237":-0.07406560757149579,"238":0.0341582875659721,"239":-0.0734834019789201,"240":-0.0511194511480652,"241":0.02247302537410978,"242":-0.11211876192966672,"243":-0.05569837833343189,"244":-0.12493484462100031,"245":-0.08808395920023074,"246":0.051186331805347415,"247":-0.011246235501948592,"248":0.05818123509592925,"249":-0.09697460345195656,"250":-0.11761040050302216,"251":0.016359296922134985,"252":0.018315655443894997,"253":0.027540368740810017,"254":-0.019802322294705625,"255":0.04685227076517239,"256":0.05958467704533072,"257":-0.0024809869006919842,"258":0.0057899882549395845,"259":-0.01859777319655409,"260":0.04816517179701702,"261":-0.04924998511129536,"262":0.08352684253130631,"263":0.07019194749708896,"264":0.007499070714848626,"265":0.03205122090663208,"266":-0.010497313415463273,"267":0.07694280020215793,"268":0.03678507258290679,"269":0.05920563171784634,"270":0.01735736124601801,"271":0.07277864877388468,"272":-0.036555186602847664,"273":-0.014559119444413472,"274":0.0075856732255975,"275":-0.031707923527554895,"276":0.08364880680317265,"277":0.009186904515408992,"278":-0.003324481051011911,"279":0.05137079439342726,"280":0.039205375015209785,"281":0.017075420169774282,"282":-0.009335034219503486,"283":-0.007481715638390812,"284":-0.014633943701312978,"285":0.05355532104836333,"286":0.06222247924517041,"287":0.057961454785680495,"288":-0.07285933470455776,"289":0.003026071016722751,"290":-0.01747375190992004,"291":0.0030428129436020474,"292":-0.013642376735216948,"293":0.04936851062321495,"294":0.045792968972823415,"295":0.029297589579418647,"296":0.012211478397765547,"297":-0.11946453436747265,"298":0.00026984338028181756,"299":-0.019560664655773996,"300":0.014367020779243404,"301":0.09169226216423271,"302":-0.018923079263336216,"303":0.026132901767731847,"304":-0.018047077062784373,"305":-0.01153339727072562,"306":-0.024721417862443595,"307":-0.040331507703018576,"308":-0.01438273769483182,"309":-0.0854256610521836,"310":0.08588239017807897,"311":-0.05803631750557337,"312":-0.06224752312252462,"313":-0.031987034840433755,"314":-0.012175670419575674,"315":0.002545553279273024,"316":0.003967094615903818,"317":0.006633754384708483,"318":-0.01423545799474673,"319":0.063366513218483,"320":-0.024868528256367345,"321":-0.07891734822188953,"322":0.1494693768557635,"323":-0.10908950899187186,"324":-0.09523658253564661,"325":-0.05314323882779074,"326":0.023551673216278397,"327":-0.0068805982612561226,"328":-0.002954863358420185,"329":-0.10285657439106666,"330":-0.06298454887758448,"331":-0.11452426211721609,"332":0.03640425403812451,"333":0.038496439118468936,"334":0.033797064062210856,"335":0.07267458554230256,"336":-0.07267882026434062,"337":-0.019328651460258008,"338":-0.15350729547642403,"339":-0.04147617941532982,"340":-0.030687723823085423,"341":0.14342794792323646,"342":0.0035949419544523825,"343":0.04057590277203546,"344":0.03445927718314205,"345":-0.1252400600736061,"346":0.052196784659472896,"347":0.01949043815312063,"348":0.08882946866707953,"349":0.023160704721506022,"350":0.09737658188373303,"351":-0.032270638581971746,"352":-0.06161369364394088,"353":-0.07398450429808842,"354":-0.0012571745122636753,"355":0.009713618148990088,"356":0.07980592066074577,"357":-0.05275527902128511,"358":0.05135481847377001,"359":-0.1354962610781937,"360":-0.13786901769744203,"361":0.03453808175646309,"362":-0.0236920360315029,"363":0.010614332349357427,"364":0.1251950806823442,"365":-0.005152204749700065,"366":-0.12020085272770942,"367":-0.08134260537863146,"368":-0.03826976797566444,"369":0.14215206682576542,"370":0.004566554314784426,"371":-0.051217828661473175,"372":0.022184083771924126,"373":-0.06033968018290872,"374":-0.11623850949724898,"375":0.02949282424482816,"376":0.008600734032556356,"377":-0.018913163976471213,"378":-0.05301422465161603,"379":-0.009794133972339634,"380":-0.0028794741374408603,"381":0.017307598045970707,"382":0.038714907304980464,"383":0.0005975210347937975,"384":-0.03366303816134718,"385":-0.0055581363337200915,"386":-0.012280447934002956,"387":0.0036364293318382904,"388":-0.013674092658291392,"389":-0.009894298502071146,"390":-0.054473971402670796,"391":0.006240575795240525,"392":0.03009585106924944,"393":0.1080799348291453,"394":-0.028489255390136,"395":0.041257746201964214,"396":0.05393052802379899,"397":0.05587004045270971,"398":-0.015561243777856199,"399":-0.07339587697608976,"400":0.07612668004507478,"401":-0.0022918182578422343,"402":0.013528592548719466,"403":-0.07976258256402186,"404":0.09392003256994855,"405":-0.006452454724543687,"406":0.03233366471990782,"407":0.0163213543311098,"408":-0.07258799757173107,"409":-0.01663168396766573,"410":-0.020728751484933534,"411":-0.05607763052891692,"412":-0.0988910448103739,"413":0.043579516410821896,"414":-0.029787196547724083,"415":0.005975811980149014,"416":-0.06195031172861326,"417":0.015481673605002636,"418":0.07287729822321322,"419":-0.07432096992305832}},{"sx":1,"sy":1,"depth":420,"w":{"0":0.012843590897996353,"1":-0.0025312062160798344,"2":-0.008150797261403636,"3":-0.020750979482491945,"4":0.07256095351847587,"5":-0.0026136990210022613,"6":0.019040293080846628,"7":-0.04425956670009531,"8":0.036630007900565906,"9":-0.014362080975538581,"10":-0.03992931774754647,"11":-0.020355265493036425,"12":-0.02065763741529655,"13":0.029937298275818366,"14":0.007342432074908819,"15":-0.013959019562932372,"16":-0.06703833436278579,"17":-0.013216268378082997,"18":-0.03786516237377744,"19":-0.07188129137261111,"20":0.031243265619624917,"21":0.04062276463278958,"22":-0.10133986600414553,"23":-0.08755274626591056,"24":-0.03219218068897344,"25":0.051389220584607626,"26":-0.02025401934968804,"27":-0.006095905553559743,"28":-0.056655729211955906,"29":0.04610359774906149,"30":-0.13237923788298925,"31":-0.02693798023915032,"32":-0.050391962237373474,"33":0.03462621753540364,"34":0.07578080143281606,"35":0.027385419951174047,"36":-0.06381718030535485,"37":-0.08374015157730055,"38":-0.02054381085014003,"39":-0.024774043493196847,"40":0.07926452539180165,"41":0.04138463083941066,"42":0.020784701399986623,"43":0.04826603200496134,"44":-0.023375040185283295,"45":-0.05137664587129673,"46":-0.0036805236730524152,"47":0.006485373449599126,"48":-0.05449654197010808,"49":-0.014142644833027096,"50":0.013824373641577042,"51":-0.06878919873741215,"52":0.009584254780382797,"53":0.14707801610468332,"54":-0.09347581724713208,"55":0.020299805909604254,"56":0.050584825621531986,"57":0.023909244212237474,"58":-0.03323234552057587,"59":0.02413548950399141,"60":0.022952744553794625,"61":0.09031539309825552,"62":-0.024300235798360905,"63":-0.048877869232659195,"64":0.02284593721252552,"65":-0.06426565966991792,"66":0.003763834842234475,"67":0.04373455626830251,"68":-0.041664135304660274,"69":-0.08961691965846019,"70":-0.009631029308343215,"71":-0.06351479622444657,"72":-0.06299448876177907,"73":-0.017883613058253017,"74":-0.006185760487774624,"75":0.08079634516710137,"76":-0.06575676430517306,"77":0.0638507030572208,"78":-0.04413456282179242,"79":-0.1286459649773585,"80":0.002083097892709194,"81":0.029820227966974113,"82":0.006235588221017316,"83":-0.047162031133947714,"84":0.011099299242606935,"85":-0.019712599730170425,"86":-0.026056989169115884,"87":-0.053567504875592614,"88":0.019352680077659522,"89":0.0002121767628902814,"90":-0.1596542667501945,"91":0.05113909559481935,"92":-0.07692923567762157,"93":-0.06754697984431719,"94":-0.12741818139904898,"95":0.11441628463113128,"96":-0.09836411570737064,"97":-0.08613084644334629,"98":-0.012000796326723004,"99":0.0420943808884416,"100":0.008039404991040658,"101":-0.11139285198839309,"102":0.03463327283803865,"103":-0.05505142025687102,"104":-0.012011991087567085,"105":0.036255869789929666,"106":-0.06436876821200023,"107":0.021833718576763573,"108":-0.10597628991287858,"109":-0.04653263639441876,"110":-0.035550829907674955,"111":0.039994976278173215,"112":0.044837240729985205,"113":-0.02175623527471234,"114":-0.022005588066923425,"115":-0.06819020665214477,"116":-0.08101457282511774,"117":0.0355511586256463,"118":-0.03373422548520533,"119":0.07216988476083838,"120":-0.02530630039386882,"121":-0.04033108273496999,"122":-0.06854828778726382,"123":0.08636565851109301,"124":0.02379000628931904,"125":0.036267444874570676,"126":0.029897225187648868,"127":0.003374416244678813,"128":-0.06910793435528294,"129":-0.17741156065920027,"130":0.09300386661560232,"131":-0.010252245460009909,"132":-0.025956719427113705,"133":0.05240926161413494,"134":-0.037205248763547145,"135":-0.03929854085796059,"136":-0.030728335714447837,"137":0.0363084017954393,"138":-0.08208161211359058,"139":-0.018480301218243005,"140":0.08089951239890625,"141":0.015183872427418116,"142":-0.03403971664583794,"143":-0.02482670074219113,"144":0.0027303859609325823,"145":-0.002467417791240173,"146":-0.06366112276743892,"147":0.018454463475689905,"148":0.10511966709310432,"149":-0.06401454595418886,"150":-0.10166088449763817,"151":-0.037589771987714744,"152":-0.06642020130898446,"153":-0.0007619105245868788,"154":-0.04454909795825012,"155":0.0667913688007327,"156":-0.04389537144523788,"157":-0.11724143710618637,"158":0.012047729149325484,"159":-0.06891342976486246,"160":-0.03864935335127215,"161":-0.025769506027382903,"162":0.04538588681826825,"163":-0.0041803497972273534,"164":0.04153540536689414,"165":-0.020820333038963832,"166":-0.06328477978537518,"167":0.034527842951518915,"168":0.024266380758277223,"169":-0.02525070315734921,"170":-0.07635531232767553,"171":-0.033823232219070666,"172":0.008847400794392626,"173":0.04855803577786222,"174":-0.01890365108398258,"175":-0.055152508775294096,"176":0.032033681359429494,"177":0.046671734682464716,"178":-0.006773656977031666,"179":-0.016877970082475317,"180":-0.04869013173919088,"181":-0.06041763548945857,"182":0.013158003846424507,"183":-0.05327140554656565,"184":-0.012701860161086147,"185":0.0038787516539584583,"186":-0.00007600466305692746,"187":-0.023131634809010457,"188":0.0025336370303566725,"189":-0.03268306169747942,"190":-0.022197410650518692,"191":-0.010276872112849847,"192":0.01838097650629471,"193":-0.044122409029257834,"194":0.0893253988323135,"195":0.0014917292180727157,"196":0.022974420071712565,"197":-0.021012023198849133,"198":-0.04263093868649356,"199":0.008643792186078888,"200":0.14919206937844962,"201":0.05961568198344485,"202":0.039611114658140587,"203":-0.10597904753398237,"204":0.036719409639518336,"205":-0.02970497541494828,"206":-0.04679531645619791,"207":0.014538602012847672,"208":-0.02777970670517173,"209":-0.03485147610341387,"210":0.0066813340765571536,"211":-0.052854573661254,"212":0.045746003868923794,"213":0.0663215941738044,"214":0.026924454461326925,"215":0.013433395541446241,"216":0.0872747422369384,"217":0.013379434424533513,"218":-0.08275898517873234,"219":-0.0033849306257843007,"220":0.08387758959204572,"221":-0.03046518396249107,"222":-0.031415235469722885,"223":-0.06154067206478859,"224":-0.07207882191543574,"225":0.02320854964216578,"226":-0.06322203177810355,"227":0.08857444764962745,"228":0.06594388762998948,"229":0.04930768516315116,"230":-0.0432641631906699,"231":-0.0546154580249198,"232":0.15505510604278455,"233":-0.05553209180172987,"234":0.04902834423858943,"235":0.10544741105846775,"236":-0.09075766106232552,"237":0.006707766470177941,"238":-0.056860628791850144,"239":0.038679767664294123,"240":0.005761008202163394,"241":0.10765315514714571,"242":-0.09454732114122413,"243":0.06880983794278844,"244":0.05008835832762777,"245":-0.026432103497344293,"246":0.049163709042589224,"247":0.006085941735714939,"248":0.22832938638568065,"249":0.03107874882671327,"250":-0.08107855664129895,"251":0.040818169870582205,"252":0.015010691966478616,"253":0.1035363483041807,"254":-0.0006977819802527963,"255":0.30592289049516064,"256":-0.005934713602114564,"257":0.04745121991841458,"258":0.060218962881803055,"259":-0.06355938705662337,"260":0.024608142428191017,"261":0.06668253483852878,"262":0.3451611245142433,"263":0.11659138969529179,"264":-0.05637530563409508,"265":0.054613638177129706,"266":-0.1295136418307596,"267":0.02730892882507029,"268":0.025397121684797852,"269":0.34169501082313486,"270":0.09195255833733441,"271":-0.050607041856410434,"272":-0.053138483174699117,"273":0.024112765606682973,"274":0.03532594229187107,"275":-0.01154566853792659,"276":0.40213207847702015,"277":-0.045027326336722365,"278":0.06014134779093419,"279":-0.0776136125002071,"280":-0.01542351855288934,"281":0.026648955978845826,"282":-0.0006154528381581317,"283":0.45067728045512917,"284":0.023093732910773285,"285":0.0038124202185203446,"286":0.02326285378518318,"287":-0.03271697408891579,"288":-0.02453065441666345,"289":0.05508474085232934,"290":0.38831107631819684,"291":0.05639223501151831,"292":-0.07492644532125117,"293":0.02497634095981904,"294":-0.01495788633587889,"295":0.02948856163642641,"296":0.06619664841912463,"297":0.537936184993609,"298":-0.05601683971104297,"299":0.06836696589331821,"300":0.06677181455628865,"301":0.04247125854646966,"302":-0.10715724073445326,"303":0.10507862444576792,"304":0.5980175776915517,"305":0.05201403667998147,"306":0.011349633633360381,"307":0.06457081489189705,"308":-0.010745723446506187,"309":0.012127768088800601,